0.00226804 0.000618557 0.00443299 0.00103093 0.00525773 0.00175258 0.00412371 0.00237113 0.00412371 0.00690722 0.00597938 0.00268041 0.00745619 0.00347542 0.00309278 0.00268041 0.00773196 0.00195876 0.00443299 0.0028866 0.00463918 0.01 0.00113402 0.0085567 0.00587629 0.00948454 0.00680412 0.00175258 0.00505155 0.000618557 0.00206186 0.00515464 0.00597938 0.00969587 0.00132937 0.000849247 0.00980084 0.00391665 0.00998927 0.00339019 0.0087887 0.00553496 -0.000179482 0.00964889 -0.000676365 0.00653431 0.00762309 0.00172944 0.00804039 0.0015034 0.00484164 0.00278351 0.00278351 0.00659794 0.00216495 0.00927835 0.000412371 0.00979381 0.00206186 0.00628767 0.00381409 0.009852 0.00585626 0.00248007 0.00699915 0.00735689 0.00550518 0.00599006 0.00569002 0.00220191 0.00738295 0.00797214 0.00802106 0.00336859 0.00891244 0.00818388 0.0059309 0.00242835 0.00766491 0.000373359 0.00821281 0.00961196 0.00731959 0.00989691 0.00484536 0.00391753 0.00824677 0.00113115 0.00553878 0.00762671 0.000570035 0.00422544 0.00475539 0.00332684 0.0108843 0.0092627 0.0161323 0.00615318 0.00575091 0.00394216 0.00208988 0.0102818 -0.000146568 0.00515698 0.00205503 0.00560498 0.0042421 0.00974901 0.00708161 0.00228447 0.000694901 0.000206186 0.00278351 0.0101031 0.0101025 0.00398451 0.00515754 -0.000598159 0.000849633 0.00176455 0.000489889 -0.00168354 0.01021 0.0127252 0.0130166 0.00354171 0.00732339 -0.00976885 -0.00265244 0.0041447 0.00309485 -0.00566585 0.000372916 -0.00173454 -0.00202112 -0.00134143 0.000280651 0.00590702 0.00461895 0.00711366 0.00597938 0.0043299 0.00638102 0.00493239 0.00293976 0.00737512 0.00455531 0.00266429 0.000226098 0.00336768 0.0124135 0.00740033 0.00591185 0.00135622 -0.00671851 0.000419421 -0.00600049 0.00417896 -0.00466666 -0.00597875 -0.00553327 0.000554634 -0.00251845 0.00454486 0.00503966 0.00652103 0.00969678 0.0011344 0.00536082 0.00185554 0.00603587 0.0073521 0.00257653 0.00215722 0.00865958 -1.65569e-05 -0.000104616 0.0114873 0.0192948 0.0194811 0.00597554 -0.00301339 -0.00662594 -0.0026687 -0.00986006 -0.0143749 -0.0184055 -0.0123102 -0.0107854 -0.0129059 -0.00480605 0.00471014 -0.000166557 0.00999556 0.00740838 0.00315339 0.00721649 0.00359832 0.00340946 0.00773604 -0.000928137 -0.00120328 -0.000865063 0.00099904 0.00156635 0.0102001 0.0135256 0.0118399 -0.0131423 -0.0130246 -0.00958534 -0.0119843 -0.0186463 -0.0178489 -0.0162341 -0.0173167 -0.0128581 -0.00277022 -0.00700526 -0.0031918 0.00565782 0.00245537 0.0098799 0.00705837 0.00462829 0.00371005 0.00395658 0.00878969 0.000500693 -0.00246235 -0.00399782 -0.00153421 -0.00399486 0.00776296 0.00668921 0.00956246 -0.00551762 0.00117529 -0.0019788 -0.00873888 -0.0212693 -0.0139298 -0.0248601 -0.0146729 -0.0123729 -0.00802029 -0.00897137 -0.0044461 0.000184213 0.00698656 0.0052236 0.000434353 0.00474227 0.00588534 0.00666198 0.0059698 -0.000669842 0.00115445 -0.00839044 0.000836243 0.00158122 0.00710585 0.0107135 0.0179464 0.00431963 0.00845031 -0.000573626 -0.00138082 -0.0116848 -0.00163731 -0.00532541 -0.0105074 -0.012192 -0.0146475 -0.00973111 -0.00516226 -0.00103265 0.00490604 0.00203601 0.0067311 0.00793814 0.00163024 0.00966526 0.00114313 -0.00515182 -4.50181e-05 -0.00333546 -0.00143042 0.00381053 -0.000434637 -0.00299608 -0.0103845 0.00806275 0.0101588 -0.0126997 -0.00799754 0.000307072 -0.00594134 -0.00608514 -0.00659481 -0.00940102 -0.00629951 -0.0108836 -0.00399287 -0.00165852 0.0102003 0.00817275 0.00359206 0.00453608 0.00192547 0.000280486 0.00281857 -0.00148454 -0.00232988 -0.0136014 -0.0117427 -0.00428313 0.00277985 -0.00699499 -2.4165e-05 0.0141657 0.00710205 -0.0028681 -0.00865042 -0.0143324 -0.0218739 -0.0104301 -0.0150374 -0.00938692 -0.00829961 -0.0167583 -0.00144103 0.000915034 0.00402097 0.00255621 0.00930854 0.00257732 0.00687419 0.00778873 0.00121578 0.00432338 -0.00703403 -0.0132297 -0.010534 0.00303363 -0.00153044 -0.00415319 0.0155665 0.0183085 0.00925792 0.00908415 -0.0110638 -0.00771298 -0.0226906 -0.0211174 -0.0173608 -0.0154887 0.00218713 -0.00567061 -0.00594218 -0.00043877 0.00545896 0.00828351 0.00985511 0.000103093 0.00472927 0.000557867 0.00821614 -0.00199987 -0.000123352 -0.00730283 -0.00762532 0.00647543 -0.00168996 0.0122887 0.0168645 0.0190409 0.012078 0.00187736 -0.00867312 -0.0126605 -0.0163843 -0.0133738 -0.0134415 -0.0119101 -0.00568093 -0.0080136 0.0032212 0.0141428 0.0197845 0.0046157 0.010964 0.00649485 0.00367671 0.00851517 0.00040051 0.00229337 -0.00337227 -0.00094747 0.003905 0.00208471 0.0217884 0.0307463 0.0220803 0.00543817 0.00246118 -0.00405713 -0.0157481 -0.0156995 -0.0205201 -0.0184943 -0.016144 -0.0070821 -0.00968759 0.00153909 0.0117755 0.0110784 0.0191348 0.00993417 0.0102677 0.00948454 0.00612613 0.00427479 0.00784768 0.00322584 -0.00745893 -0.00330235 0.00485333 0.0136669 0.0194624 0.0161843 0.00827351 -0.0078686 -0.00647678 -0.0157058 -0.00972255 -0.0155528 -0.0023465 -0.0148564 -0.00850833 -0.0073771 0.00701707 0.00931329 0.0231677 0.0193755 0.0269212 0.0195866 0.00290751 0.00865979 0.0100726 0.00472356 0.00300596 0.00567611 0.000409733 0.00591443 0.00265966 0.0146937 0.0163991 0.0132559 -0.000164473 -0.0156797 -0.00237526 0.00180765 -0.00385157 0.00207554 0.00627571 -0.00306682 -0.0103987 -0.00606166 0.0150776 0.0234755 0.0229895 0.0156129 0.0229072 0.0182134 0.00578054 0.00350515 0.00792831 0.00600838 0.00568625 0.000244682 -0.00812715 0.00262519 0.0135969 0.0182404 0.0197451 0.00708727 -0.00883857 -0.0126143 0.00543325 0.010183 0.0147768 0.00504592 0.00417254 -0.00577225 -0.00744965 -0.00128597 0.00672634 0.00946524 0.0108514 0.00856418 0.0144735 0.00958674 0.00614075 0.0028866 0.00443299 0.00392227 0.00561875 0.0048564 -0.000415834 0.00158029 0.00174735 0.0101991 0.0181313 0.014925 -0.00161966 -0.00334769 0.000842337 0.00283912 -0.00197527 0.00538923 0.00293437 -0.00329634 -0.00350287 -0.00134239 0.00696911 0.0151231 0.0148342 0.00865835 0.0103347 0.00481893 0.00338256 0.00340206 0.00102192 0.00313001 0.00532394 0.00228652 -0.00112435 -0.00219179 -0.00680619 -0.0116546 0.00776072 0.00729455 0.00847195 -0.0114007 -0.00265345 -0.00217947 -0.00135205 -0.000470062 -0.00183389 -0.0025275 0.001117 0.0107413 0.0159784 0.0176103 0.0177901 0.0127232 0.0165511 0.0128053 0.00135194 0.00154639 0.00864765 0.00073542 0.00976862 0.00481939 0.000637457 -0.000693192 -0.00182352 -0.0110236 -0.000954509 0.00372884 0.0126981 0.00768031 -0.00701515 -0.00271561 -0.000883423 -0.00736523 0.00547821 0.00419066 0.00481396 0.00424815 0.00903006 0.00898189 0.00572853 0.00440726 0.00601873 0.00628843 0.0056701 0.00577301 0.00969066 0.00249448 0.0103234 0.00620948 0.00274038 -0.00341592 0.00176259 -0.00087816 -0.00641221 0.0103217 0.0131685 0.00691925 0.000274945 -0.00881186 -0.012937 -0.00491731 -0.00425915 0.00855106 -0.000600192 -0.00180725 0.00155951 0.00867926 0.00616513 0.00438197 0.000727883 0.00424286 0.00360825 0.00371116 0.00103087 0.00454388 0.00656776 0.00679049 0.00632805 0.0020044 -0.00338731 -0.00237571 -0.00386182 0.00412995 0.000123012 -0.00547684 -0.00806825 -0.0130958 -0.00963884 -0.0202033 -0.0160652 -0.00482446 -0.00171949 0.00294156 0.00427434 0.000803808 0.0056749 0.00299117 0.00724091 0.00397205 0.00608247 0.00237113 0.0085567 0.00386278 0.000475972 0.00484515 0.00255107 -0.00229229 0.000181927 0.000327658 -0.00104267 -0.00540906 -0.00924881 -0.0159256 -0.0151915 -0.0252379 -0.0248292 -0.0112467 -0.00457705 -0.0058777 0.00514795 0.00941058 0.00231045 0.00798452 0.000974828 -0.0026793 0.00511385 0.00127432 0.00134021 0.00154639 0.00505155 0.00776858 0.00805007 0.00875285 0.00692025 -0.00160775 0.00608705 0.00353684 0.001762 -0.000983986 0.0033174 -0.00491086 -0.00358105 -0.0103873 -0.00109052 -0.00230666 -0.000188891 0.0089696 0.00716429 0.00184719 0.00966253 0.0112034 0.0104551 0.00597215 0.00494007 0.000463561 0.00773196 0.00835052 0.00989691 0.00268051 0.000160879 0.00344381 0.00588153 0.00322079 0.00804695 0.000552339 0.00037272 -0.00394254 0.0026173 0.000739971 0.00120767 -0.00420275 0.000941738 0.00569914 0.00530424 0.00244915 0.00684626 -0.00159364 0.00954163 0.00938826 0.00217004 0.00971324 0.0040648 0.00211472 0.00618557 0.00958763 0.00412371 0.000103093 0.00783505 0.00793707 0.00894538 0.00501798 0.00278579 0.00819889 0.00178535 -3.66267e-05 0.0026061 0.00547746 0.00531618 0.00309528 0.00743501 0.00592628 0.00668872 0.0060364 0.00847363 0.00178336 0.00774492 0.00862243 0.00054814 0.00287768 0.00896907 0.00216495 0.000824742 0.00896907 0.00773196 0.00463918 0.00639175 0.00597938 0.00721555 0.00443058 0.00656623 0.00442094 -0.000943454 0.00154119 0.00244213 0.00418992 0.00494124 0.00247075 0.00171302 0.00708816 0.000915693 0.00933059 0.0055697 0.00855817 0.00982948 0.0062656 0.00430296 0.00546392 0.0043299 0.000103093 0.00474227 0.000515464 0.00350515 0.0043299 0.00350515 0.00237113 0.00329897 0.00886598 0.00649485 0.00298969 0.000618557 0.00814433 0.00474227 0.00410827 0.00110023 0.0102062 0.00391753 0.000206186 0.00164948 0.00226804 0.00680412 0.00474227 0 0.00237113 0.00268041 0.00154639 0.00515464 0.000721649 0.00123711 0.00340206 0.00927835 0.00206186 0.00185567 0.00886598 0.00195804 0.00840785 0.00765548 0.00812056 0.00253525 0.00657101 0.00192789 0.00978629 0.00779537 0.00791403 0.00781368 0.000294546 0.000530512 0.00529147 0.00447594 0.00179608 0.00879644 0.0061798 0.00639175 0.00979381 0.0028866 0.00948454 0.00164948 0.00597938 0.00175258 0.00865979 0.0101226 0.0100067 0.00486874 0.00383362 -0.000648197 0.002485 -3.73451e-05 0.00514795 0.0073239 0.00809816 0.0032685 0.00669101 0.00735273 0.00688608 0.00259893 0.000919644 0.00942662 0.00827701 0.00361754 0.0017213 0.00464534 0.00868166 0.00560482 0.00804124 0.00175258 0.00969072 0.00195876 0.0021672 0.005211 0.00741849 0.00147656 0.000167115 0.00667504 0.00757161 -0.00206632 0.00392785 0.0026979 0.00316782 0.00459007 -0.00444394 0.00236336 0.00336384 8.70937e-05 -0.000938003 0.000665447 0.00543692 0.00198961 -0.000139336 0.00321924 0.00273106 0.000605924 0.00122358 0.000721649 0.0014433 0.00329897 0.00990423 0.00175153 0.00101361 0.00296833 0.00664717 0.00330142 -0.00129684 -0.000848578 0.00547495 -0.00047858 -0.00699463 -0.00635138 -0.00517047 0.00504487 0.00964091 0.00161878 0.00205814 -0.00371704 -0.00451328 0.00158583 -0.000311183 0.00451581 0.00120625 0.00867721 0.00288078 0.00359255 0.00814433 0.00525773 0.00205279 0.00808506 0.00560919 0.000825426 0.00538555 -0.000776647 -0.00151063 -0.00264376 -0.000965156 -0.00534452 0.000123333 -0.00380417 0.000463554 0.000808112 -0.000916023 0.00670742 0.00574246 0.00469619 0.00612485 0.00283566 0.00181337 0.00807138 0.000378982 0.00696719 0.00108825 0.00956443 0.00113402 0.0065979 0.0084052 0.00921363 0.00591512 0.00575875 -0.00187215 0.00295246 -0.00710531 -0.00665537 -0.00244484 -0.00400872 0.00159565 -0.00249794 0.00247157 -0.00147728 -0.00231501 0.000710375 0.00307878 -0.000840169 0.00817522 0.00802028 0.00249006 0.0069738 0.00531775 0.000277006 0.00642865 0.00111526 0.00649485 0.00463925 0.00581329 0.00458537 0.00183523 0.00746094 0.00698585 -0.00675274 -0.00126798 -0.0023927 0.00426075 -0.00336715 0.000792324 0.00204821 -0.0101092 -0.00849611 -0.00398846 -0.00633807 0.00216519 0.00471462 0.00620394 0.00723626 0.0106545 0.00771551 0.000369186 0.00674819 0.000780163 0.00688256 0.00393536 0.0027445 0.00388487 0.00396602 0.00617213 0.00301335 -0.0023627 0.00468597 0.00162721 0.00307872 0.00119159 0.0020849 -0.00263682 -0.00237714 -0.00153945 -0.00376214 0.00534577 0.000541202 0.000845041 0.00467642 0.00762752 0.0125019 0.00942324 0.00745881 -0.00165929 0.00883849 0.000130423 6.9673e-05 0.0071134 0.00384964 0.00574285 0.0110629 0.00843765 0.00863147 -0.00227627 -0.00218234 -0.0058696 0.000368348 0.00439686 -0.00284829 2.41579e-05 0.0122981 0.0121796 0.00546087 0.00208507 -0.010674 -0.00723272 -0.00413645 0.00725618 0.0109758 0.00870592 0.0160224 -0.00105666 0.00222528 0.000672335 0.00399496 0.00226804 0.00968449 0.00553435 0.00887311 0.00546808 0.00549636 0.00492935 0.00286193 0.00113556 -0.00464992 -0.00281416 0.00422116 0.00642301 0.00518042 0.0107224 0.00561766 0.00393217 -0.00138148 0.00465448 0.00101294 0.00287069 0.00498218 0.0117627 0.0144912 0.00715104 -0.000866343 0.00791059 0.00948908 0.00608247 0.00608571 0.00768743 0.00345523 0.00451623 0.00346497 -0.00265978 0.00485598 0.00240417 -0.000952249 0.0023833 0.000643686 -0.000641226 -0.000262852 0.00119642 0.00807078 -0.00448278 0.00139017 0.00331947 -0.0015273 0.0098022 0.00897105 0.0139464 0.00860828 0.00205359 0.00556399 0.00113504 0.000518574 0.00628866 0.00548536 0.008104 0.000955148 0.00272648 -0.00490933 -0.0028979 0.000510146 -0.000100817 0.00160536 -0.00495339 0.00365476 0.00357358 -0.00100049 0.00215975 -0.00299392 0.00126219 0.00363221 0.000542495 -0.00373624 0.00619955 0.00576903 0.00716603 -1.67295e-05 0.00487995 0.000778933 0.0069721 0.00889379 0.00731959 0.00879674 0.0019808 -0.000794196 -0.00337186 -0.00291086 0.000209021 0.000131032 0.00525667 0.00594665 -0.00217243 -0.0045144 -0.0106553 -0.00917991 0.000147449 -0.00235337 -0.00242281 0.00359207 0.00172632 0.00164722 0.000351612 -0.00202225 0.000368237 0.00657478 0.0102188 0.00756193 0.00373995 0.00840506 0.00608247 0.00977208 0.00882149 -0.000463535 0.00635812 0.0115604 -5.59769e-05 0.0041505 0.00381244 0.0101017 -0.00103114 -0.0066689 -0.00858497 -0.00214027 -0.00786372 -0.00637682 -0.0075932 -0.00275126 0.00502928 0.00517688 0.00811684 -0.00528196 0.00260112 0.00127672 0.0121794 0.00525058 0.00989211 0.00495452 0.00391753 0.00654902 0.000770062 0.000511864 0.000976508 0.00707613 0.00229079 -0.00248419 0.0018594 0.00744115 -0.00633832 -0.0045599 -0.00648667 -0.00291723 -0.0079541 -0.00334871 -0.00971167 0.000997427 0.00237317 0.00655821 0.00615826 0.00478961 0.000522046 0.00623914 0.0104456 -0.00036854 0.00758306 0.00545321 0.00659794 0.00203807 0.00653769 0.00061145 0.0100362 -0.000679816 0.00323784 0.00950081 0.0102414 -0.00266847 -0.00353323 0.00353164 0.00452005 -0.00282081 0.00589321 0.00670329 -0.00389647 0.00570178 -0.00413033 -0.0013129 0.00536791 4.50613e-05 0.00606902 0.00793462 0.00718414 0.0067523 0.00960765 0.00394803 0.00824742 0.00205381 0.000614933 0.00348116 0.0107451 0.0081003 0.00489005 0.0034998 0.0062564 -0.000427517 -0.000790309 0.00338718 0.00767183 0.00946676 0.00677061 0.000451382 -0.00204131 0.00259554 -0.00188119 -0.0026183 0.00132182 0.00570124 -0.000527802 0.00101876 0.00753825 0.00445707 0.00405845 0.00789424 0.00587629 0.00628866 0.00930878 0.00218907 0.00223038 0.00332401 0.00893567 0.00192768 0.00787042 0.00521675 0.000949598 -0.00402773 -0.00355635 0.00146333 -0.0072781 -0.00508815 -0.00518654 0.00363795 0.0017006 -0.00534514 0.00553737 0.00513124 -6.06552e-05 0.00462671 0.00434489 0.00676601 0.00769773 0.00536308 0.00865979 0.00630181 0.00695634 0.00790744 0.000180045 0.0113084 0.00500107 0.0040433 0.00342621 0.00122368 -0.00868928 0.00234927 -0.00133801 -0.00384502 -0.00816267 -0.0113965 -0.0116147 0.0040481 0.00213566 0.00200977 0.00233777 -0.00636247 0.00229191 0.00458636 0.00109136 0.00847883 0.00877876 0.00535634 0.000309278 0.0070106 0.00365866 0.00432708 0.00635908 0.0105303 0.00603908 0.00300172 0.00527763 -0.00829851 -0.0056485 -0.00731415 -0.00458709 -0.00984619 -0.0128871 -0.0111737 -0.00865436 -0.00488216 -0.00449746 -0.00559469 0.000674115 0.00233995 0.00299586 0.000865083 0.00436799 0.00115097 0.000873984 0.00907216 0.00896835 0.00896885 0.00820735 0.00290923 0.00368976 0.00594614 0.0157364 0.00919635 0.0068689 -0.00496966 -0.00978586 -0.0138289 -0.0121145 -0.0104909 -0.0142205 -0.00619199 -0.00449161 -0.00786783 -0.00370533 -0.00503452 -0.00176108 -0.00183533 0.00287318 0.0058883 0.00861942 -0.000457915 0.00451183 0.00762887 0.00175187 0.00371111 0.0014617 0.000620148 0.0070733 0.00514034 0.00887778 0.00862607 0.00784435 0.00701382 0.00210939 0.0019036 -0.00392238 -0.00336229 -0.00780641 0.000443525 -0.00465648 0.000546412 -0.000176434 0.000796128 -0.00117539 -0.00307669 -0.00176843 0.00697464 -0.00015328 0.000545042 0.00551211 0.0043299 0.00443299 0.00185567 -2.3837e-05 0.00919516 0.00846667 0.00113715 0.0116664 0.00639085 0.00943932 0.00269071 0.00425018 0.00494459 0.00594461 0.00292896 -0.000499214 5.94904e-05 -0.00311798 0.0015242 -0.000632565 0.00180505 -0.00107473 -0.000586628 0.00685504 0.0033029 -0.000634757 0.00335673 0.00220343 0.00103093 0.00340206 0.00453608 0.0081331 0.00473911 0.00718208 0.00444663 0.0109946 0.0033703 0.0111796 0.00320584 0.000373289 0.00122403 0.00567783 0.00643105 -0.00289797 -0.000355854 0.00790302 0.00374599 0.00556794 0.00434582 0.00397682 0.00306964 0.00229901 0.00625497 0.00863862 0.00023112 0.0102082 0.00896907 0.00103093 0.00979381 0.00803943 0.00629979 0.00283964 0.00192832 0.00898474 0.0017202 0.000782062 0.00353184 0.00156695 -0.000645765 0.00112397 0.00216533 -0.00112047 0.00428374 0.00442311 0.00643925 0.00669708 0.00204519 0.00195218 0.0074875 0.00849614 0.00699868 0.0093531 0.00464132 0.00268298 0.00649485 0.00587629 0.000412371 0.0085567 0.00474227 0.00250855 0.00859599 0.00758181 0.00266685 0.00271354 0.0089791 0.00870024 0.00248328 0.00683207 0.00243607 0.00520003 0.00907493 0.00381537 -0.000673595 0.00416519 0.00365572 0.00644784 0.00751054 0.00540206 0.00379256 0.00391435 0.00195876 0.00309278 0.00134021 0.00639175 0.00680412 0.0014433 0.00175258 0.00969072 0.00763284 0.000106785 0.0039751 0.00617941 0.00270631 0.00227611 0.00359026 0.00998851 0.00848066 0.00098462 0.00920265 0.00260114 0.00797787 0.00704756 0.0044075 0.00329259 0.00382726 0.00732755 0.00517872 0.0101031 0.00237113 0.00886598 0.00886598 0.00958763 0.00340206 0.0071134 0.00958763 0.00876289 0.00309278 0.00391753 0.00680412 0.00257732 0.00195876 0.00206186 0.00835052 0.00628574 0.00710701 0.00804124 0.00649485 0.0056701 0.000412371 0.000927835 0.00969072 0.00103093 0.000103093 0.00969072 0 0.00329897 0.00113402 0.00628866 0.00505155 0.000927835 0.00824742 0.00886598 0.00876289 0.00835052 0.00381228 0.00850826 0.00108563 0.00656473 0.006315 0.00200417 0.0044734 0.00167666 0.00761425 0.000221835 0.00893489 0.00127509 0.00276013 0.00599246 0.000183449 0.0017401 0.00402374 0.00247447 0.0014433 0.00701031 0.00639175 0.00195876 0.00298969 0.00340206 0.00164948 0.0085567 0.00236976 0.00979334 0.00259891 0.00628329 0.00404899 0.00510398 0.00500398 0.00656905 0.00411325 0.00453045 0.00251215 0.00626239 0.00171337 0.00747316 0.00257973 0.00369517 0.0074046 0.00776837 0.000150703 0.000905781 0.000187414 0.00524143 0.00999444 0.00927835 0.00701031 0.00298969 0.00958763 0.00298865 0.00948051 0.000958844 0.00382922 0.00114058 0.00904024 0.00745277 0.00418275 0.00164315 -0.000630318 0.00241291 0.0051931 0.0053444 0.0101874 0.00396512 0.0085164 0.0027937 0.0105064 0.00894103 0.00171243 0.00076246 0.00720276 0.00320354 0.000559894 0.00227978 0.00814433 0.00680412 0.00783505 0.000304702 0.00948378 0.00445061 1.87054e-05 0.00536739 0.00132279 0.00764493 0.0059948 -0.00230243 0.00698126 0.00335861 -0.00146884 0.00687852 0.000183106 -0.00034359 0.000732757 0.00454124 0.00361721 0.00499178 0.00404005 0.00834432 0.0106395 0.00678421 0.00881149 0.00632526 0.000513106 0.00845361 0.00216495 0.0035033 0.00831545 0.00428599 0.00305316 0.00833196 -0.00212881 0.00275021 -0.00139691 0.00507935 0.000666756 -9.05473e-05 0.0020139 0.00137801 -0.00781604 -7.30455e-05 -0.00596755 0.00254141 -0.00345624 -0.000444089 0.00185526 -7.16286e-05 0.00308931 0.00372402 0.00454517 0.00517854 0.000511979 0.00927835 0.0102058 0.00114436 0.000568135 0.00464577 -0.00082748 0.00751063 0.0029758 0.00344942 0.00120462 0.00257591 -0.00262323 0.00660279 0.000240655 0.003695 -0.00154417 -0.00177054 -0.00263952 -0.0107165 0.00250058 -0.00165223 -0.000706054 0.00254714 0.00841699 0.00990216 0.00639621 0.00545443 0.00773435 0.000515464 0.00174509 0.00212385 0.00140992 0.000305796 -0.00242135 -0.000258472 -0.000623458 0.00348194 -0.00448824 0.00284678 0.00276214 -0.000254727 -0.00225135 0.00152535 0.00190909 -0.00488135 -0.00414438 -0.0102933 0.00153476 -0.00568548 0.00180227 0.00142728 0.00564012 0.00554834 0.00571964 0.0101036 0.00505639 0.00564016 0.0056332 0.00595857 0.000473727 0.00347487 0.00368374 0.0064519 -0.00122107 0.00423931 -0.00624031 -0.00704478 -0.00840792 0.00322477 -0.00526256 0.00101037 0.000525661 -0.00105903 -0.00336956 -0.00121071 -0.00506154 -0.00316176 0.00461087 0.00268519 0.00504662 0.0092288 0.00796197 0.0101662 0.00959257 0.00762887 0.00656189 0.00240691 0.00487051 0.00508118 0.00756377 0.00781948 0.000749771 0.00267484 -0.00414492 -0.00228201 0.00145179 -0.00540233 -0.00525011 -0.0019457 -0.00395806 -0.00470339 -0.0113519 0.00441366 0.0034567 0.00401294 -0.00282995 0.00544889 0.00524497 0.00147841 0.00849237 0.00801777 0.00310296 0.00278351 0.00190008 0.00166911 0.00780595 0.000797642 0.00556757 0.00716623 0.00545597 -0.00130946 -0.00373452 0.00116956 -0.00177201 0.00356378 -0.00170371 0.00151134 -0.00229102 -0.00223296 -0.00836202 -0.00100101 -0.00339533 -0.000536462 0.00328795 -0.0021594 0.00266108 0.00596687 0.00344128 0.00775238 0.00867178 0.0102062 0.00542972 0.00128252 0.00462744 0.00185644 0.00974203 0.0107044 0.0070105 -0.00115217 -0.00408596 -0.0072269 -0.000407923 0.00182241 -0.00252333 0.00387798 0.00530115 -0.0045798 0.00064 0.00244966 0.00288844 -0.00519314 -0.000295792 0.00518079 -0.00218154 0.0065389 0.00730792 0.00948149 0.00340867 0.00896907 0.00873532 0.00755146 0.00965208 0.00863635 0.00183302 0.00708926 0.00675101 0.00221645 -0.000541627 0.00130085 -0.00310413 0.00295736 -0.001473 -0.00107195 -7.77951e-05 0.00211487 0.000924668 0.00068417 0.000813793 -0.00105745 0.00192605 0.00455452 -2.77486e-05 0.00358522 0.00678874 0.00734443 0.00874516 0.00103093 0.00390438 0.00107489 0.00252606 0.0088866 0.00866712 0.000807186 0.00636198 0.00422336 -0.0045376 0.000985899 -0.00716172 -0.00237779 -0.0015282 0.00537656 0.00156318 -0.00135689 -0.00855106 -0.000517606 0.00351137 0.00270807 -0.00326519 -0.00257419 0.00424273 0.00313822 0.00473379 0.00327029 0.00694822 0.00639175 0.00731349 0.00547469 0.00574605 0.00455983 0.00504049 -0.000415705 0.00221898 0.00376081 0.00438462 -0.00530041 -0.00036209 -0.000924279 -0.00685166 -0.00225692 -0.000999524 -0.00984722 -0.0100858 -0.000937295 0.00332556 0.00315856 -0.00233608 -0.00163113 8.85593e-05 -0.00177912 0.00779173 0.000243589 0.00885907 0.00752577 0.00998916 0.000300097 0.00744357 0.00191088 0.00160167 -0.00211613 0.00475584 0.00135032 0.00235887 0.00608242 -0.00252541 0.000916622 -0.00122069 -0.00121589 -0.00524774 -0.00367971 0.00595173 -0.000270602 -0.00219457 -0.000951306 0.00468372 -0.00226008 0.00503812 0.00355708 0.00929544 0.000750413 0.00440812 0.00835052 0.00669375 0.00128256 0.00258042 0.00170793 0.00315461 -0.00286198 -0.00511311 0.00199555 0.0013105 0.0017503 -0.000177165 0.0059028 0.00182266 0.000931532 -0.0028995 -0.00459933 -0.000255495 -0.000901743 -0.00277941 -0.0037233 -0.00254348 0.00323489 0.00368728 0.00293349 0.000358182 0.00178887 0.00284282 0.00381443 0.00504966 0.00839411 0.00550305 0.00822448 0.000290017 -0.002421 0.000327833 -0.00311249 0.000168548 -0.00371152 0.0050423 0.00384888 0.00558538 0.00477158 0.000818017 -0.00528957 -0.00365966 -0.00479002 -0.00236682 0.00454947 0.00275771 0.000380118 0.000885755 0.00156456 0.00571676 0.00848078 0.00626411 0.00185567 0.0057732 0.00651682 0.00947874 0.00576014 0.00707682 -0.00332133 -0.00217623 -0.00566959 0.000789597 -0.00444106 0.00339397 0.00251391 0.00298718 -0.00135062 0.000261785 -0.00654794 -0.000553273 -0.00185482 -0.00619083 0.00288007 -0.00212927 -0.00573055 -0.000795314 0.00123209 0.00834335 0.00864136 0.00998072 0.00103093 0.00071851 0.0082667 0.00119335 0.00378667 0.00592756 0.00405657 0.0027616 0.00414613 -0.00465283 -0.00262373 0.00186161 -0.000412023 0.0027661 -0.00539743 -0.00906413 -0.00412091 -0.000306962 -0.00372486 -0.00641603 -0.00227031 0.00141621 -0.00502024 0.000763181 0.00275794 0.0080017 0.00788262 0.00102893 0.00907216 0.00680234 0.00484883 0.00876925 0.0042963 -0.000251849 -0.000383629 -0.00603113 -0.00552484 -0.00740407 -0.00853606 -0.00286842 -8.18523e-05 0.00014946 -0.00500306 -0.00917211 -0.00542431 -0.00328724 -0.00156625 -0.00447774 0.00312523 0.00611863 0.00106414 0.007823 0.00782273 0.000255994 0.00266558 0.00793814 0.00618586 0.00938153 0.00865507 0.00406457 0.000412421 0.00382472 0.00401122 -0.00657548 -0.00834358 -0.00466425 -0.000635054 -0.00495462 -0.00713273 -0.00834815 -0.00847422 -0.00895133 -0.000541145 0.000220158 -0.00468564 0.00316682 0.0048714 0.00703844 0.0011483 0.00645718 0.00746817 0.00127864 0.0044102 0.00546392 0.00814461 0.00103102 0.00965355 0.00415934 0.00287191 -0.00141632 0.00165047 -0.00459585 -0.00555523 0.000355957 -0.00657234 -0.00635193 -0.000639214 0.000807685 -0.00894398 -0.00511776 0.00389281 -6.58413e-05 0.00196908 0.0061431 0.00117865 0.0105182 0.00702097 0.0110855 0.00842965 0.00296043 0.00148531 0.00113402 0.00886598 0.0102062 0.00708709 0.000734958 0.00966484 0.00531886 1.49137e-06 0.0072402 0.00144654 -0.00147383 0.00150556 -0.00274163 0.00500743 -0.000771084 -0.0054176 -0.00487812 0.00727466 0.00594793 0.00359747 0.00373974 0.00622674 0.00438416 0.00181546 0.00342306 0.000856094 0.0025456 0.00228888 0.00103093 0.00319588 0.00195876 0.00774481 0.00221645 0.00848209 0.00262955 0.00231229 0.00943987 0.0026233 0.00555724 0.0034544 0.00631636 8.7515e-05 -0.00168187 -0.000139893 -0.000927492 0.00886992 0.00188542 0.00109303 0.0101724 0.00434151 0.00616308 0.00890701 0.0080939 0.00910886 0.00933267 0.0021594 0.00773196 0.00783505 0.00134021 0.00195808 0.0086682 0.00776869 0.00119167 0.00705729 0.00870715 0.00801499 0.000114915 0.00807801 0.0110237 0.00994698 -9.16849e-05 0.00546391 0.00197759 0.000806445 0.0032362 0.00281645 0.0101859 0.0107063 0.00956134 0.00800438 0.00268873 0.00426017 0.0014387 0.00772646 0.000721649 0.00701031 0.00938144 0.00649485 0.00319588 0.00226032 0.00964093 0.000390156 0.0104104 0.00707708 0.00762333 0.00355683 0.00539345 0.00217878 0.0106298 0.00842421 0.00307893 0.0101351 0.0103833 0.00312972 0.00532791 0.00498359 0.00944536 0.0084719 0.0096493 0.00331164 0.00659794 0.00298969 0.00278351 0.00391753 0.00319588 0.00371134 0.00608247 0.00608247 0.00567557 0.00683192 0.00387392 0.00865115 0.00847067 0.0035197 0.0103207 0.00611522 0.00215265 0.00443019 0.00261183 0.000611469 0.00698262 0.00624814 0.00653451 0.00394684 0.000299676 0.00685546 0.00121603 0.000618557 0.00835052 0.00371134 0.00494845 0 0.00742268 0.00824742 0.00597938 0.00402062 0.00969072 0.00329897 0.00721649 0.00329897 0.00268041 0.00515464 0.00443299 0.000616937 0.00533779 0.00824742 0.00278351 0.000824742 0.00371134 0.00546392 0.00938144 0.00298969 0.00731959 0.00371134 0.000824742 0.00185567 0.00360825 0.00546392 0.00783505 0.00175258 0.00989691 0.00783505 0.00835052 0.00381443 0.00956322 0.00714922 0.0065156 0.00062333 0.000399778 0.00524821 0.000802177 0.00331401 0.00311456 0.00450179 0.00587588 0.000612947 0.00298516 0.00528105 0.00250811 0.00140209 0.00279654 0.00844636 0.00701031 0.00154639 0.00752577 0.00989691 0.00958763 0.0085567 0.00989691 0.000206186 0.000799769 0.00119308 0.0040668 0.00411187 -0.000729196 0.00307751 -0.0068594 -0.00763021 -0.00662879 -0.000876329 -0.00207257 0.00464017 -0.00420638 -0.00102457 0.00745858 0.00559157 0.00043223 0.00673597 0.000468153 0.00303004 0.000487343 0.0084027 0.00208918 0.00360825 0.0028866 0.00443299 0.00226804 0.00249012 0.00169606 0.00421439 0.00365983 0.00160321 -0.00163109 -0.00905095 -0.015234 -0.0153916 -0.0154273 -0.0106293 -0.00730628 -0.000906714 -0.0107056 -0.0065945 -0.00505087 -0.00933696 -0.00125652 0.00563292 0.00818413 0.00184466 0.000723576 0.00216543 0.00631775 0.00178554 0.00865979 0.000412371 0.00690722 0.00808767 0.00546982 0.00182885 6.55495e-05 -0.00322001 -0.000893691 -0.00614291 -0.0122006 -0.00894325 -0.00970538 -0.0187818 -0.0113669 -0.0115647 -0.0217958 -0.0260647 -0.0167837 -0.00369495 -0.00827179 0.0024748 0.00550609 0.00460147 0.00943499 0.0125736 0.00724257 0.00612918 0.000367468 0.00175258 0.00123711 0.00470011 0.00888592 0.00585601 -0.00123737 -0.00429482 -0.0106545 -0.00716209 -0.0086436 -0.00815585 -0.00688563 -0.0144919 -0.010592 -0.0367095 -0.0459417 -0.0259649 -0.00285091 0.00949499 0.0161379 -0.0018394 0.00200492 0.00155787 0.00540649 0.0121819 0.00280468 0.00756502 0.00137694 0.000309278 0.00175209 0.0056487 0.00456777 0.00930936 0.00478058 0.00222056 -0.0107932 -0.023591 -0.0209685 -0.0206122 -0.0289901 -0.0133306 -0.0110776 0.00734329 0.0202906 0.0401059 0.0375621 0.00926001 0.00816281 0.00740924 -0.00459148 -0.0113182 0.00223499 0.00598351 0.00235712 0.00431042 0.0078758 0.00484536 0.00453115 0.010137 0.00140201 0.00824864 -0.00237388 0.00247432 -0.0176056 -0.0290252 -0.0366974 -0.0148615 -0.00145029 0.0202116 0.0255137 0.0362502 0.0428109 0.0290127 0.0232535 -0.0192458 -0.0219838 0.0055264 0.0324753 -0.000660318 -0.0121554 0.00443788 0.00844276 0.00403778 0.00840264 0.00250661 0.00421416 0.00250016 0.00770428 0.00552201 0.00326513 -0.00594985 -0.0309335 -0.0399515 -0.0210655 0.00979103 0.0181966 0.0187696 0.019227 0.0081935 -0.0112096 -0.000907981 -0.0159831 -0.00946627 -0.0190017 -0.000493364 0.0308272 0.0097631 -0.0170689 0.000454221 0.00338566 0.00739976 0.0030433 0.00536082 0.000905309 0.00875801 0.00131694 0.00936675 0.000817224 -0.0138877 -0.0247549 -0.00242364 0.012704 0.0127489 -0.00472606 0.0159201 -0.00524393 -0.0219839 -0.0291306 -0.0157964 -0.014416 0.0102236 -0.000538062 0.00789939 0.0290105 0.00365727 -0.0164144 -0.0035347 0.0073958 0.00183631 0.00905668 0.00907216 0.00982051 0.00197208 0.00843861 -0.000862732 -0.00393437 -0.0150149 0.0096754 0.00911935 -0.00288914 -0.0143847 0.00042186 -0.0121608 -0.0306657 -0.0419275 -0.0487138 -0.0335951 -0.0261258 0.00615824 0.0269125 0.0142239 0.0218545 -0.00633592 -0.0142616 -0.00392014 0.00520814 0.00811269 0.00680164 0.00381443 0.00335714 0.00769317 0.000127094 -0.0030044 -0.00387223 0.0102221 0.00474745 0.0337487 -0.0141663 -0.00830802 -0.0167355 -0.0113635 -0.0188361 -0.0258019 -0.0419828 -0.0358363 -0.0394026 -0.0228187 0.00146454 0.0166605 0.00702798 0.000970542 5.17338e-05 -0.00103822 0.00862725 0.00132675 0.00358001 0.000103093 -0.000974627 -0.000918155 -0.00242116 -0.00457101 0.0184496 0.0130729 0.00559293 0.00812871 0.00202323 0.0206556 0.00205375 -0.00286085 -0.00454284 -0.0203228 -0.0308486 -0.0326982 -0.0388516 -0.0252112 -0.00860209 0.00606162 0.0142463 0.014525 -0.00638661 -0.00793307 0.00100551 0.00555569 0.00708638 0.00793814 0.00442489 0.00660002 -0.00722768 -0.0130294 0.0237917 -0.000379413 0.00317662 0.0110454 0.0122276 0.0248469 0.00995171 0.0110187 0.00304287 -0.0105847 -0.00526131 -0.00166419 -0.0225247 -0.03575 0.00400434 0.0330538 0.031099 0.00898657 -0.0153781 -0.0162137 0.00380687 0.00899208 0.00348875 0.00907216 0.00139795 -0.00383004 -0.00734809 -0.00290311 0.0134389 0.0120854 0.00682065 0.0215387 0.0301666 0.0320782 -0.00136581 0.00236003 -0.00668707 -0.00793307 0.0039604 -0.00486069 -0.0359686 -0.0128187 0.0252928 0.0620475 -0.00310714 -0.0170657 -0.0270243 -0.0162229 0.00270046 0.00659416 0.00713451 0.00546392 0.00754895 -0.00116092 0.0018953 0.00886619 0.00318055 0.0351508 0.00209739 0.00375933 0.019284 0.0120053 -0.0119696 -0.0245904 -0.0282887 -0.026275 -0.0217149 -0.0312928 -0.0339396 0.00687381 0.0484553 0.0370236 -0.0170261 -0.025731 -0.0252713 -0.0140271 0.00732347 0.00389763 0.00170557 0.00628866 0.00129965 0.00414189 0.0127667 0.0202749 0.0204094 0.0197435 -0.0134089 -0.00260542 -0.0108709 -0.00217681 -0.0250859 -0.0350413 -0.033964 -0.0420629 -0.0379705 -0.04195 -0.0260802 0.0561698 0.0427772 0.0283282 -0.0380235 -0.020595 -0.0152891 -0.00295204 0.003279 0.00776724 0.00658952 0.00278351 0.00740946 0.00917551 0.00989442 0.0193155 0.0199781 0.0247718 -0.000164317 0.0138676 -0.00122079 0.00892184 -0.00157418 -0.0122998 -0.007859 -0.010747 0.000583282 -0.0261086 0.0207388 0.0563668 0.0303701 -0.0130344 -0.0311099 -0.0100537 -0.00638209 -0.00572454 0.00259587 0.00840414 0.00290459 0.00443299 0.00742268 0.0060431 0.0050043 0.0173483 0.0216361 0.0165251 0.00889939 0.00346962 0.00112925 0.00784513 0.00108295 0.00476709 -0.00695409 0.00563759 -0.0217021 -0.0084541 0.0480499 0.0369805 0.0310265 -0.0165001 -0.0107093 -0.00400713 0.00422741 0.00181085 0.00067154 0.00348464 0.00732489 0.00453608 0.00294108 0.000567271 0.00884681 0.0146366 0.0117673 0.00749485 0.00701409 -0.00251367 -0.0138954 0.00694288 0.00914998 -0.00949169 -0.00992725 -0.00803637 0.00035396 0.026982 0.0178699 0.0266932 0.00931272 -0.0231131 -0.0132094 -0.0185459 0.00234979 0.00611566 0.00548792 0.00981414 0.0101068 0.00268041 0.0080962 0.00516178 0.00678142 -0.00797733 -0.00252723 0.00227537 -0.00623321 -0.0145437 -0.02367 -0.0304721 -0.0209726 -0.0358472 -0.0298892 -0.0140558 -0.000427085 0.0315768 0.0301033 0.0140292 -0.00201572 -0.015578 -0.019941 -0.0090082 0.0102278 0.0200218 0.00578767 0.00177461 0.00742268 0.0024728 0.00762842 0.000624625 0.00660354 -0.0125125 -0.00390643 -0.00442963 -0.00222208 -0.0100214 -0.00940679 -0.0322538 -0.0303501 -0.0303006 -0.00531109 -0.0169093 -0.0105651 0.0144834 0.0108452 0.00594914 0.00881471 -0.0105428 0.000280301 -0.0016952 0.00948612 0.0190829 0.00361519 0.000509106 0.000721649 0.00938005 0.00546347 0.0102094 0.00504224 -0.00743826 -0.0153749 -0.0194649 -0.0335164 -0.0307509 -0.0300012 -0.0276647 -0.0405301 -0.0180191 -0.0247976 -0.00317278 0.00191491 0.0131347 0.0161092 0.0040988 -0.00140749 0.0110064 0.00915998 0.00607693 0.0136478 0.0177355 0.00447361 0.00624347 0.000618557 0.00237113 0.0056701 0.00489887 0.00364499 -0.00940218 -0.0166533 -0.0101921 -0.0313191 -0.0459248 -0.0425921 -0.049083 -0.0229577 -0.0140115 -0.0140334 0.0148182 0.0120652 0.0199758 -0.00252114 -0.00324921 0.000297365 0.00648059 0.00957037 0.00700294 0.0125649 0.0131961 0.00920791 0.00314726 0.00134021 0.00876289 0.00752577 0.00795115 0.00119984 -0.00335568 -0.0102489 0.00104461 -0.0020981 -0.00500812 -0.0154156 -0.0219836 0.00571881 -0.00343931 0.0187131 0.0393974 0.0273551 0.00294066 -0.0104374 -0.0033084 0.00135484 0.0090218 0.000220934 0.00587037 0.00693702 0.0100223 0.00889375 0.00490269 0.0056701 0.00865979 0.00865979 0.00731446 0.00862645 0.00792755 0.00237871 -8.01793e-06 2.26579e-05 -0.00454457 0.00277145 0.00998531 0.00216196 -0.00762529 0.0153635 0.0401979 0.00659744 -0.0153267 0.00304083 0.00836157 0.0129295 0.00937692 0.00737306 0.00235625 0.00725325 0.00803122 0.00901848 0.00583232 0.00896907 0.00360825 0.000515464 0.0028866 0.00505155 0.005955 0.00509581 0.0051508 0.00602 0.00398716 0.0152913 0.00887837 0.00731222 0.0109364 0.00857715 0.0123312 0.00151005 0.00108689 0.00771284 0.0060494 -0.00336826 0.00877136 0.00895032 0.00461597 0.00810448 0.00457231 0.00453608 0.00938144 0.0101031 0.00247423 0.00505155 0.00814433 0.0085567 0.00350515 0.0100012 0.00190121 0.000449832 0.00540895 0.00578491 0.00168488 0.00776487 0.00078657 0.00643418 0.00495767 0.00718385 0.00651741 0.00169224 0.0105683 0.00410068 0.00951241 0.0109229 0.0088364 0.0100919 0.00876289 0.00329897 0.00556701 0.000515464 0.00237113 0.00247423 0.0028866 0.000721649 0.00865979 0.0101031 0.00680412 0.00515464 0.00907216 0.00793814 0.00298969 0.00773196 0.00946389 0.00913005 0.00185567 0.000309278 0.00845361 0.00154639 0.0057732 0.00123711 0.00298969 0.0014433 0.00237113 0.00391753 0.00206186 0.00896907 0.0056701 0.00309278 0.0014433 0.00865979 0.00453608 0.00247423 0.00649485 0.00988749 0.0013982 0.00523213 0.00237607 0.00825821 0.00963254 1.40212e-05 0.00101467 0.00149557 6.04964e-05 0.00633976 0.00899268 0.00570864 0.00493686 0.0075464 0.00447071 0.0044987 0.00257423 0.00505155 0.00628866 0.00701031 0.00649485 0.00876289 0.0085567 0.00649485 0.00680412 -2.17536e-06 0.0102054 0.00838994 0.00263535 0.00842032 -0.000621053 0.00155046 -0.00230503 -0.000395338 0.0018634 0.00861447 0.00696729 0.00732245 0.00670723 0.00839823 0.00355618 0.00249758 0.00110681 0.00979872 0.00519959 0.00547198 0.0088387 0.00268607 0.00391753 0.0071134 0.0014433 0.00618557 0.00701193 0.00855107 0.00303606 0.00853975 -2.90919e-05 0.00114061 0.00486638 0.000681467 0.00269429 0.000999806 0.0082258 0.0132628 0.0107717 0.00905371 -0.000512105 0.00137322 0.00267748 7.03693e-05 0.0029558 0.00628663 0.000943849 0.0105479 0.001138 0.00743751 0.00154138 0.00443299 0.00381443 0.0071134 0.00721979 0.00391724 0.000799405 0.00392414 0.00714146 0.00366506 -0.00514993 -0.00293751 -0.00109641 0.00562259 0.017148 0.0138629 0.0149759 0.0123836 0.00223608 0.00829197 0.00531318 0.00612486 0.00183403 0.00312217 0.0108155 0.0106102 0.0077832 0.00938135 0.00202495 0.00306193 0.00587629 0.00268041 0.00360325 0.00746251 0.00891807 -0.0065659 -0.00560069 -0.00272993 -0.00648697 8.69019e-05 0.00621952 0.00884222 0.0145503 -0.00219778 -0.00340308 -0.0120439 -0.0052908 -0.00170542 -0.00838891 -0.00391246 0.00458904 0.00891236 0.00638368 0.0105387 0.010589 0.00527223 0.00886355 0.00562451 0.00886598 0.00381422 0.000530883 0.00808951 0.00410166 -0.00613043 0.00415629 -0.00669497 0.00360122 0.0100035 0.00756818 0.0053596 0.0043602 0.00245656 -0.00856336 -0.00975598 -0.00763876 -0.00373636 -0.0091567 -0.00240172 0.00290453 0.0033796 0.0101928 0.0129123 0.00870787 0.00860579 0.00597565 0.00280489 0.00298969 0.00277878 0.00703874 0.00031612 0.00992071 -0.00378399 -0.00111287 -0.00307362 0.00658829 0.00859534 -0.00527094 -0.00660182 -0.00282588 -0.00551007 -0.00518134 0.00234537 -0.00481157 -0.00641396 -0.0049658 -0.00480518 -0.00385776 -0.00160091 0.00389452 0.00853439 0.00261918 0.00735075 0.0104473 0.00572495 -3.56686e-05 0.0054909 0.0100409 0.0126224 0.0127313 0.0113783 0.0108359 0.0128376 0.00946298 0.00323048 0.000141973 -0.0149904 -0.0132061 -0.0045221 -0.00103683 0.00124274 -0.00473273 -0.00701138 -0.000108271 0.00705308 -0.00526743 -0.00477995 -0.000826676 0.0101859 0.00914838 0.0122411 0.00152842 0.00124952 0.00896907 0.00219933 0.00626909 0.00917634 0.00305088 0.0130908 0.0196305 0.0182973 0.0195406 0.0118095 -0.00342987 -0.0202422 -0.0278246 -0.0171226 -0.0069594 -0.00813359 -0.00399265 -0.00994877 0.00446964 0.000756817 -0.00534104 -0.00402532 -0.000650023 0.00538552 0.00990712 0.00737204 0.00680173 0.00459389 0.00391753 0.00322071 0.0057008 0.00648802 0.01104 0.0092467 0.0116022 0.0207207 0.0244671 0.0258545 0.000807393 -0.0118571 -0.0207854 -0.0137776 -0.0117203 -0.00927493 -0.0060251 -0.00724346 -0.00341214 0.002416 0.0040605 -0.000494634 0.00151471 0.00845298 0.00694131 0.00946831 0.00134451 0.00623017 0.00721649 0.00411136 0.00406192 0.00521877 0.00525302 0.0063301 0.0151271 0.0226205 0.0267497 0.0292723 0.019626 0.014185 0.0118909 0.00576918 -0.00179631 0.00369123 0.00266955 -0.0052934 0.00515524 -0.00297042 0.0028866 0.00759253 0.0065979 0.0089612 0.0124431 0.00338317 0.00739205 0.000535381 0.00659794 0.000593916 0.000769555 0.0071936 0.00629401 0.00814987 0.00163251 0.0117603 0.0164478 0.0214481 0.0244933 0.0242044 0.0259536 0.0129256 0.00131342 0.000135334 -0.00836526 0.000920976 -0.00046484 -0.000114769 -0.00134086 0.00611856 0.00555334 0.00675763 0.00222769 0.00850259 0.00536156 0.00277348 0.00618557 0.00916384 0.00911647 0.00941178 0.00412478 0.00405531 -0.00602637 -0.00143282 0.00850677 0.0150088 0.0144044 0.018667 0.0228361 0.0066237 9.66303e-05 0.0017587 -0.00637081 -0.0139762 -0.00518892 0.00202062 -0.00166895 0.00137348 0.00231334 0.0054281 0.00340489 0.00895577 0.00595077 0.0023427 0.00556701 -1.6549e-05 0.00362634 0.0068408 0.000913974 0.00059079 0.00116795 -0.000626575 0.00178872 -0.00824498 -0.00707951 -0.000975486 0.00253282 0.00247866 -0.00432186 0.00400857 0.000112745 -0.00825124 -0.00760549 -0.00112122 -0.0100153 -0.00460256 -0.00225639 0.000415248 -0.00458367 0.0108076 0.00927821 0.0015203 0.00927835 0.00306139 0.00701516 -0.000904695 0.00517281 0.00132664 -0.00428632 -0.00801376 -0.0124272 -0.0117661 -0.01549 0.00175279 -0.00298097 0.0096232 0.00511844 0.00577351 0.00658972 -0.00102167 -0.00812355 -0.00145956 -0.00462262 -0.00814443 -0.000851632 -0.00146816 -0.00285125 0.0120349 0.00236509 0.00855375 0.000412371 0.000293739 0.0066606 0.00171069 -0.003208 0.0033989 0.00150495 -0.0107114 -0.00206846 -0.015043 -0.00339599 -0.00297272 0.00340632 -0.00247527 0.00586191 -0.00528475 0.00491523 0.00296522 -0.00158411 0.00349277 -0.00408871 -0.00651912 -0.0112277 -0.00128078 -0.00180136 0.00676334 3.98897e-05 0.00339869 0.00391753 0.00484019 0.00514522 0.00145293 -0.00295415 -0.00329283 0.00324231 -0.00831492 -0.00343387 -0.00829869 -0.00687603 -0.00297722 -0.00362807 0.00756589 0.0014711 -0.00383278 -0.00482102 0.000530373 0.000871 0.00110347 0.000310545 -0.00316452 -0.00302566 -0.00225837 0.00628035 0.00218895 0.00293402 0.00316954 0.00350515 0.00350515 0.00728928 0.00466734 0.00453438 0.00687194 0.00394443 -0.00171218 0.0049362 0.00159948 -0.00284577 -0.0105256 -0.00431681 -0.00209376 0.00618358 0.0027129 -0.0136092 -0.00880399 -0.00205221 0.00420216 -0.00261234 -0.00779372 -0.000420673 0.000484355 0.000672279 -0.00181725 0.00425051 0.00616019 0.00525773 0.00175046 0.00347694 0.00383813 6.82603e-05 -8.11417e-05 0.00837301 -0.00106794 0.00895897 -0.000645044 0.00132688 -0.0113799 -0.0138627 0.0031624 0.00610664 -0.0075733 -0.00965987 7.90198e-05 -0.00237458 -0.00379574 -0.000359978 -0.00196287 -0.00162083 0.00112117 0.00519842 -0.000851715 0.000485482 0.00978623 0.00164948 0.00484455 0.00487709 0.00105977 -0.000628562 0.00363231 0.00771565 0.00875667 0.00295295 -0.00137274 -0.0016819 -0.00586396 -0.00941634 -0.00270402 -0.00069389 0.00564822 -0.0038737 -4.81688e-05 0.00232095 -0.00825192 0.000427096 0.00372975 -0.00121568 0.00468928 0.00288914 0.00509518 0.0100402 0.000927835 0.00340195 0.0102061 0.00303206 -0.00122115 -0.0014312 -0.000372619 0.0035972 0.00807037 0.00431622 -0.00794351 -0.01375 -0.0108201 -0.00178454 0.00426399 0.00535378 0.00495738 0.00771198 0.00472466 0.00345395 -0.00698468 0.00102006 0.00893713 0.00177703 0.00599452 0.00721474 0.00314686 0.000665295 0.00257732 0.0070102 0.00835048 0.00380458 0.00309263 0.00390706 -0.000575536 0.00641024 0.010418 0.00698709 -0.0053278 -0.00864958 -0.0154574 -0.00645318 -0.00393352 0.00254563 0.00130869 0.00717895 0.00470469 -0.00516685 0.00453208 0.00836351 0.0113856 0.00516387 0.00952282 0.00466565 0.00761253 0.00630193 0.00680412 0 0.00360825 0.000703834 0.00209801 0.00350721 0.00338709 0.00669034 0.0026961 0.00984897 0.00376102 -0.00255191 -0.0109263 -0.0162926 -0.0103404 -0.0129503 -0.00112815 0.00867168 0.00574459 0.00815764 0.00777076 0.0118828 0.0113645 0.0149279 0.0146326 0.0073546 0.0038643 0.00882604 0.00515464 0.00216495 0.00309278 0.00433104 0.00138732 0.00482182 0.006797 0.00881282 0.00583536 0.00584792 0.000546748 -0.000242127 -0.0019862 -0.00193299 -0.00227923 -0.00735 -0.00333565 -0.00308915 0.00323344 -0.000140185 0.0130979 0.00887657 0.00396367 0.00744527 0.00555384 0.00574555 0.00250945 0.00679799 0.00587629 0.00824742 0.00247423 0.00381343 0.00617545 0.00889443 0.00579598 0.00255126 0.00121566 0.00880895 0.00821544 0.00699181 0.00927517 0.000759935 -0.00350773 0.000866227 0.0059698 0.0103028 0.00625721 0.0101609 0.0012205 -0.000634467 0.00652805 0.00286484 0.000662 0.00848876 0.0029854 0.00710827 0.00845361 0.00164948 0.00742268 0 0.00618557 0.009668 0.0012854 0.00663858 0.00516038 0.00653332 0.00684043 0.00977745 0.00799358 0.00589198 0.00698866 0.00264234 0.00455378 0.00246937 0.00552001 0.00889802 0.0065524 0.00567403 0.00790663 0.00816872 0.00557183 0.00731865 0.0042268 0.0042268 0.00340206 0.00752577 0.00195876 0.00505155 0.00907216 0.00783505 0.0101028 0.0102049 0.00977409 0.00533652 0.00770633 0.00874577 0.00451569 0.0101649 0.00810704 0.00713947 0.00426085 0.00480187 0.00840507 0.00298647 0.00425654 0.00795428 0.00372966 0.00549214 0.00184778 0.00659794 0.00103093 0.00701031 0.000927835 0.00773196 0.00793814 0.00814433 0.00969072 0.00927835 0.00206186 0.00989691 0.00134021 0.00659794 0.0057732 0 0.00804124 0.0090664 0.00947192 0.00257732 0.00989691 0.00804124 0.00381443 0.0102062 0.00742268 0.00329897 0.00525773 0.0085567 0.00164948 0.0042268 0.00865979 0.00226804 0.00103093 0.000206186 0.00628866 0.00216495 0.00185567 0.00783505 0.00978962 0.00187411 0.00644822 0.00188084 0.00604457 0.00625296 0.00130584 0.00373714 0.00900366 0.0095283 0.00448677 0.00418126 0.0072784 0.00864578 0.000961386 0.00922259 7.39009e-05 0.00845123 0.00649485 0.0056701 0.00896907 0.00474227 0.00484536 0.00989691 0.00298969 0.000309278 0.000205929 0.00123703 -0.000114546 0.00495899 0.00127141 0.00712712 0.00624275 0.00173467 0.00306371 0.00427047 0.00715299 0.00152465 0.00164764 -6.39368e-05 0.000729783 0.00134255 0.00929953 0.00124024 0.00306394 0.00991424 0.00541053 0.00413073 0.00674898 0.0028866 0.00731959 0.00329897 0.00257732 0.0101098 0.00536168 0.00371303 -0.000105263 0.00612891 0.000491675 0.0104402 0.00864671 0.0115605 0.00637065 0.00524417 0.00614789 0.00111397 0.00254631 -0.000393387 0.00200012 0.002438 0.000498537 0.00673666 0.00780412 0.0043508 0.00118042 0.00818408 0.00123665 0.0102246 0.00175258 0.000103093 0.00134021 0.00517569 0.00185977 0.00339365 0.00432188 0.00648414 0.00956367 0.0071202 0.0102178 0.0036752 0.00554209 0.0078037 0.00673261 0.00409114 0.00851601 0.00520973 0.00703129 0.00820812 0.00590318 0.00528814 0.00236015 0.00321672 0.00862901 0.0078937 0.00327316 0.00554776 0.00971075 0.00505155 0.00618557 0.00669587 0.00595942 0.00757775 0.00200575 0.00793718 0.00567424 0.00308565 0.00663823 0.0107674 0.0128668 0.0071696 -0.000582193 0.00466531 0.0049758 0.00869005 0.00882789 0.00357652 -0.000268856 0.000584581 -0.00129427 0.00295029 0.0003886 0.000570295 0.000748048 0.00757673 0.00441334 0.00701031 0.00371157 0.00296818 0.00234094 0.000121299 0.00433571 0.00152352 0.00768799 0.00818572 0.00145695 0.00357906 0.00504477 0.0028756 -0.00475583 -0.00607032 -0.00687488 0.00263675 0.00106133 -0.00728738 -0.0020245 -0.00330031 0.00160838 0.0054832 0.00778927 0.00220934 1.48729e-06 0.00449954 0.00284757 0.00360825 0.00526149 0.00678197 -9.99539e-05 -0.000811639 0.00133867 0.00316275 0.0056351 0.00136836 0.00535549 0.000638528 0.000704564 -0.0014596 -0.00457565 -0.0108688 -0.0101867 -0.0113523 -0.012538 -0.00889314 -0.00579359 -0.00588949 0.00497557 -0.000767405 0.00430152 0.00620626 0.00766433 0.000981171 0.0012145 0.0101091 0.00413028 0.0005073 0.00451078 0.00127206 0.00311287 -0.000208097 -0.00208213 -0.00387653 -0.000966638 0.00247944 0.00128398 0.00171806 0.00308639 0.00258622 -0.00573329 -0.00757828 -0.0136241 -0.00549728 -0.00110144 0.00220989 0.00377544 0.00142749 0.00932688 0.000955008 0.00709145 0.000709433 0.00546669 0.0042268 0.00836761 0.0039883 0.00561374 -0.00114647 0.00385311 0.00279156 -0.000577658 0.00133103 0.00107192 0.00245475 -0.00545539 0.0022166 0.00151587 0.00346458 -0.00136879 -0.0091539 -0.00436128 -0.00577054 -0.00401079 -0.00561678 0.00569757 0.0042665 0.000815174 0.00445531 0.000562302 0.00559864 0.00144031 0.000206186 0.00813863 0.000136066 0.00177467 0.0013967 -0.00357117 -0.00228294 -0.00752722 -0.00629349 -0.0100498 -0.00582985 -0.00144561 0.00384447 0.00182946 0.00229685 0.000384561 -0.0066103 -0.00347769 -0.00688007 -0.00254612 -0.00819504 0.00207569 0.00391945 0.00598325 0.000904624 0.00812974 0.00580489 0.00711309 0.00814433 0.00959955 0.0044957 0.00778285 0.000198207 0.0036422 -0.00624181 -0.00342535 -0.00778283 -0.00835151 -0.0104563 -0.00486204 0.00661236 -0.000550007 -0.00151289 -0.00803059 -0.00305045 -0.0096012 -0.00833267 -0.00735647 -0.00168163 -0.00284663 0.00474335 0.000898708 0.000283296 0.0106914 0.00453637 0.00165648 0.00381443 0.00619821 0.00545546 0.000796318 0.0027743 -0.0051794 -0.00663909 -0.00370119 -0.0045746 -0.00572018 -0.00737632 0.00359886 0.00685105 -0.00198429 -0.00147531 -0.0119741 -0.00587739 -0.00485238 -0.0101492 -0.00446574 0.000770266 4.36579e-05 0.00534662 0.00348527 0.00344451 0.0049402 0.0049757 0.00509666 0.00670103 0.00371105 0.0073189 0.00150648 0.00370576 -0.00247568 -0.00927343 -0.00813473 -0.0104635 -0.00310178 0.00187098 0.00501416 0.00172736 -0.000722339 -0.00350693 -0.00404127 -0.010219 -0.010661 -0.00586377 -0.00976721 0.00344344 -0.00437538 0.000495389 0.00074172 0.00739915 0.011728 0.00737052 0.00591361 0.00463918 0.00432595 0.00237741 0.00276444 -0.000970207 -0.00437192 -0.00366361 -0.00446059 -0.00307726 0.00446476 0.00069942 -0.00111194 -0.00466002 0.00455705 -0.00514676 -0.00476747 -0.0125159 -0.0129626 -0.00253087 -0.000688684 -0.00735858 -0.0013712 -0.00149016 0.00485512 0.0123903 0.00339773 0.00252342 0.00733521 0.00649485 0.00958105 0.00321707 0.000190259 -0.000632598 0.00605155 -0.00231459 0.00368522 -0.00152323 -0.000836406 0.00314718 -0.00174691 0.00408595 0.000591137 -0.00588851 -0.0076193 -0.0112916 -0.00319944 -0.00490673 -0.00675472 -0.00149563 0.00126365 0.00434394 0.00228853 0.00819179 0.00797639 0.00790904 0.00652309 0.000927835 0.000307222 0.00664111 0.00763958 0.00678267 7.65155e-05 0.0041416 0.0017453 0.00524508 -0.00207636 -0.000111241 0.00690886 0.000776741 -0.00321223 -0.000448634 0.000455025 0.000292694 0.00164578 -0.00331262 0.00287262 0.0059281 0.0072128 0.000711597 0.00650597 0.0106706 0.00750239 0.00855962 0.00105239 0.00164948 0.00484434 0.00724452 0.0018896 0.00956473 0.00940891 0.000867648 0.00196702 0.00491513 0.000937691 0.00589424 0.00931548 0.00676082 0.00446496 -0.00429666 -0.00319988 -0.000597515 0.00259522 -0.00132616 0.0029945 0.00526318 0.00525986 -0.000708379 0.00225319 0.00640565 0.00555362 0.00179902 0.00539612 0.00958763 0.00948454 0.00916815 0.00119711 0.00591451 0.00214197 0.00561289 -0.000565002 -0.00294373 0.00121786 0.00589816 0.00887485 0.00588288 0.00786619 0.00385099 0.00363821 -0.00511344 0.00251106 -0.000781448 0.0019601 0.0047448 0.0026962 0.00153114 0.0053959 0.00585317 0.00530756 0.00159596 0.00459611 0.00618557 0.00350872 0.00266082 0.00718473 0.0109333 0.0103 0.00762564 -0.00255202 0.00146969 0.000381878 0.00461524 0.00844507 0.000486149 0.000297756 0.00480607 -0.000483658 -0.00202596 0.00605912 0.000418167 0.00646693 0.00490441 0.00150351 0.00145132 0.0031554 0.00455106 0.00238536 0.00421829 0.00401978 0.00216495 9.74006e-05 0.00687213 0.00638466 0.00407493 0.00900046 0.00301997 -0.000755799 0.00674984 0.00145678 -0.000535248 0.00648476 0.00539386 0.00498921 -0.00189315 -0.00833432 -0.000944425 -0.000459947 0.00240227 0.001303 0.00146715 0.00212011 0.00761718 0.00547713 0.00247938 0.00971079 0.00229517 0.00268041 0.00700829 0.000411738 0.00777745 0.00283486 0.00176411 0.00822947 0.00128956 0.00553351 0.00110551 -0.000934851 -0.00118595 0.00512596 0.00127439 -0.000725539 -0.00540122 -0.00809487 0.00270842 -0.00393539 -0.00289878 0.0022755 -0.00426316 -0.0031594 0.00257721 0.00998156 0.00874573 0.00629533 0.00183969 0.00927835 0.000101124 0.00319524 0.00851705 0.000403117 0.00339612 0.00634004 0.00622753 0.00206209 0.00390353 -0.00107201 0.00465571 0.00327798 0.00267981 -0.00238094 -0.00284329 -0.00529661 -0.00407208 -0.00123885 0.00234078 0.00186793 0.00538078 0.00775441 0.00269198 0.0090974 0.00743798 0.00512412 0.00850248 0.00443299 0.00278351 0.00948454 0.000752305 0.00167663 0.000378167 -0.00118499 -0.000112091 0.00291769 0.00535243 0.000783755 0.00622941 -0.00318737 -0.00237404 -0.000215407 -0.00313773 -0.00297776 0.000979883 0.00321755 0.00264246 0.000725232 0.00332165 0.00524604 0.00606858 0.00281224 0.00163583 0.00582833 0.00390409 0.00907216 0.000309278 0.00226804 0.00410687 0.00716037 0.000612919 0.000684356 0.00700231 0.000293539 0.00324234 -0.00219731 0.00213316 -0.00134422 0.00247201 -0.00416432 0.00382711 6.59416e-05 0.000942703 0.00749443 -0.00115821 0.00122044 0.00739645 0.00606522 0.00246756 -0.000172313 0.00306197 0.00253893 0.00733018 0.00628866 0.00793814 0.00154639 0.00319654 0.00069995 -5.28268e-05 0.00283291 0.00113743 0.00371622 0.000327754 -0.000602911 -0.00182192 0.00435085 0.00346546 0.00383568 -4.20525e-05 0.00597347 -0.00143426 0.00201032 0.00343845 0.00107982 0.00576569 0.00830958 0.00731704 0.00611071 0.00154257 0.0100093 0.00207292 0.00494845 0.00113402 0.00195876 0.00659794 0.00680412 0.00432243 0.00432609 0.00617972 0.00761167 0.00262739 0.00746765 0.00292009 0.00469069 0.00473975 0.00851997 0.00224028 0.000467222 0.00216013 0.00889548 0.00649888 0.00336885 0.00295771 0.00544358 0.00292873 0.00538105 0.0062872 0.00391753 0.0071134 0.00329897 0.00391753 0.00917526 0.00103093 0.0014433 0.00443299 0.00515493 0.00721177 0.00432741 0.00843548 0.00289664 0.00495357 0.0001952 0.00677287 0.00134918 -0.000193585 0.00583072 0.00315648 0.00306451 0.00920373 0.00405316 0.00819248 0.00545361 0.00901926 0.00381466 0.00546392 0.00360825 0.00319588 0.00484536 0.00164948 0.00886598 0.00175258 0.00969072 0.00556701 0.00865979 0.00371134 0.00979381 0.00938144 0.00371134 0.00845361 0.0014433 0.00672923 0.00531945 0.00608247 0.00515464 0.000412371 0.00721649 0.00381443 0.00896907 0.00505155 0.00278351 0.00268041 0.00804124 0.00463918 0.00412371 0.00835052 0.00556701 0.00175258 0.00608247 0.00309278 0.00804124 0.00989691 0.00938439 0.00206335 0.00776966 0.00052754 0.00911263 0.00755307 0.0056606 0.00976173 0.0100432 0.00872147 0.00142786 0.0039469 0.00535834 0.00188936 0.00469751 0.00581633 0.0082988 0.00836328 0.00752577 0.00927835 0.00278351 0.0043299 0.00185567 0.00309278 0.00319588 0.00113402 0.00855734 0.00711362 0.00273132 0.00617544 0.00455876 0.00266483 0.00227001 0.00613245 0.00310053 0.000325054 0.0124206 0.00742973 0.0112408 0.0159849 0.00933302 0.010332 0.00381027 0.00429284 0.00225341 0.00763337 0.00634183 0.0065459 0.000201933 0.0056701 0.0071134 0.0057732 0.00463918 0.00142685 0.00267832 0.00793136 0.00871459 0.000674484 -0.000544292 0.00480074 -1.78417e-05 0.00671307 0.000951351 0.00862975 0.00995263 0.0408494 0.041058 0.0327619 0.0093604 0.0179924 0.00497475 0.00595278 0.00699487 0.00257667 0.00478802 -0.000295715 0.00808119 0.00103463 0.0014433 0.00474227 0.0014433 0.00128889 0.00441468 0.00711017 0.00333059 0.00172833 -0.0018633 -0.0101556 -0.0129461 -0.00951998 -0.00763047 0.00570811 0.0294829 0.0470016 0.0254145 0.0190431 0.00266675 -0.0220538 -0.000707201 0.00860559 -0.00495876 -0.018287 -0.0175543 -0.0168542 -0.000582023 0.00326902 0.00871649 0.00257732 0.00154639 0.00219848 0.00256611 0.000896513 0.000481067 -0.0109601 -0.0182938 -0.0208782 -0.020788 -0.0149446 -0.0160802 0.00919999 0.0232723 0.0509502 0.0496494 0.0423106 0.0359446 -0.0109894 -0.0133441 0.00665568 0.0171676 0.000208667 -0.00540937 -0.0110583 0.00264457 0.00279609 0.00662329 0.00680412 0.00711325 0.00644688 0.000104121 0.000135068 -0.0108052 -0.0219476 -0.0178492 -0.0122037 -0.0125578 -0.0248055 0.00832626 0.0299711 0.0355371 0.0280077 0.0314168 0.0130949 0.023723 0.0307907 0.0168651 -0.0225841 -0.00683089 0.0351586 0.00664798 -0.00643666 0.00496857 0.0026889 0.00549957 0.00371134 0.00719738 0.00241135 0.00197349 0.00268448 -0.0137485 -0.0257594 -0.022577 0.00085021 0.00717198 0.0104571 0.0155628 -0.00814456 -0.0107719 -0.00866988 -0.000645614 0.00166708 -0.0121955 0.00247632 0.00254649 -0.0172632 -0.0225049 0.0303379 0.0199215 0.00267223 0.00112639 0.00378149 0.00309367 0.00211401 0.00278517 0.00674089 0.00305389 -0.00596216 -0.0296166 -0.0129094 0.00209678 -0.0152013 -0.00421245 0.000345224 0.0179915 0.0291892 0.0292678 0.0017233 -0.0405016 -0.00654483 -0.00178577 -0.0346706 -0.00414688 -0.0179977 -0.0296757 0.00665638 0.026734 0.00964797 0.00743973 0.00958608 0.00796824 0.00969072 0.00373528 7.88489e-05 0.00370818 -0.00642488 -0.0318554 -0.0161338 -0.00290711 -0.0265827 -0.0268123 0.0039813 0.0108464 0.0124605 0.0186469 -0.00586626 -0.0196486 -0.0417358 -0.0338557 -0.0317608 0.0179781 0.00767149 -0.0220096 -0.00343347 0.0108457 0.00699983 0.00524463 0.00260955 0.00689924 0.00628866 0.00298499 0.0028731 0.0072808 0.000721184 -0.0124585 -0.0205038 0.0044487 -0.000631039 0.00792787 -0.0121235 0.00336626 0.0113616 0.0031824 0.0221483 0.00989358 -0.0595434 -0.0341376 0.00995132 0.00652758 -0.0140781 -0.0149574 -0.022516 -0.00286315 0.00763345 -5.83132e-05 0.00230123 0.0102074 0.01 0.00155701 0.00972593 0.00233677 0.00277927 -0.00894555 -0.0113108 0.0181574 -0.00119959 0.0084061 -0.00669573 0.0148348 -0.0130629 0.0114051 0.0282097 0.0148497 0.00358231 0.00746526 0.0114512 -0.0109492 -0.0206382 0.0035188 -0.00736592 -0.000239573 0.0158911 0.0191235 0.0123804 0.000989262 0.00371134 0.00192801 0.00817909 0.000177536 -0.00116958 -0.0105954 -0.0019429 0.00228411 -0.019169 0.0152018 -0.00412986 0.00679967 -0.0173687 0.017738 0.0123447 0.0393644 0.0449413 0.0390574 0.00387511 -0.0335083 -0.0274189 0.0164023 -0.0056327 -0.00853308 0.0149047 0.0097727 0.00803536 0.00567255 0.00195876 0.00225391 0.00376662 -6.53142e-05 -0.00888434 -0.0112139 -0.00434194 -0.0205978 -0.0236016 -0.00765047 -0.0141056 0.00723637 0.0101759 0.00584305 0.00238236 0.0469666 0.0157817 -0.00966718 0.00377526 -0.0223815 -0.0344741 -0.0298453 -0.0124033 -0.00419125 0.00814347 0.00683257 0.0101993 0.00135041 0.00731959 0.00426549 0.00370508 0.000214015 -0.00178126 -0.00598752 -0.0216177 -0.0220237 -0.0541364 -0.0211481 0.0332366 0.0624304 0.0208047 -0.00144359 -0.00388745 -0.00804868 -0.024684 -0.0206386 -0.0203318 -0.0273131 -0.0332976 -0.0320402 -0.0202017 -0.0149438 -0.00604138 0.0142371 0.00494895 0.000837453 0.00979381 0.00975909 0.00927802 0.00646361 0.000398672 -0.00125404 -0.0170355 -0.0136989 0.00734781 0.0489203 0.0793788 0.0451732 -0.0260759 -0.0235583 -0.0065781 -0.0248455 -0.0325569 -0.0434364 -0.0240755 -0.0339417 -0.0111314 -0.0294657 -0.0314814 -0.00949178 -0.00149382 0.0119736 -0.0026715 0.00889282 0.00731959 0.00250881 0.00699316 0.00690177 -0.0038002 -0.0023225 -0.00537768 0.0027121 0.0606384 0.113319 0.074863 -0.00774085 -0.0634899 -0.0526576 -0.0165941 -0.0100472 -0.0289048 -0.0257312 -0.0237788 -0.0343149 -0.00638102 -0.0149938 -0.00720544 -0.00204638 -0.00803208 0.00763999 0.0027589 0.00200454 0.00670103 0.00162675 0.00389157 0.00564557 0.00225263 0.0074412 0.00020919 0.0387481 0.0894193 0.0808545 0.00310736 -0.072261 -0.0745773 -0.0520698 -0.0271376 -0.0253546 -0.035597 -0.00751051 -0.00706383 -0.0181452 -0.0204968 -0.00618218 -0.00527216 -0.000289375 -0.00151218 -0.00864713 0.00934312 0.00793677 0.00969072 0.00391753 0.00102492 1.99626e-05 0.0101824 0.0183774 0.0355081 0.0698635 0.0651558 0.0259351 -0.060409 -0.0795323 -0.0612119 -0.0466218 -0.0201265 -0.0121085 -0.00427099 -0.00935152 -0.0175294 -0.0346331 -0.0254122 -0.000655344 -0.00147691 0.0148034 -0.00569257 -0.0113392 0.0100719 0.000296981 0.00206186 0.00115208 0.00772227 0.0081827 0.0291956 0.0360936 0.0319479 0.0230272 0.0426387 0.00956998 -0.0466489 -0.0863026 -0.0539757 -0.0436423 -0.0310809 -0.0111715 -0.00269679 -0.0332233 -0.0367685 -0.0141426 -0.0172301 0.010802 0.0126892 0.00919178 -0.016756 -0.0126732 0.00566825 0.00360072 0.00474227 0.00332433 0.00167408 0.00614505 0.0234042 0.0423415 0.0198485 0.0117082 -0.00522211 -0.00726368 -0.00331643 -0.0473409 -0.038191 -0.053885 -0.0202458 -0.00712152 -0.0204932 -0.0343842 -0.0156184 -0.0151341 0.00760346 0.0100941 0.0216283 0.010982 -0.0148819 -0.00982322 0.0102851 0.000824742 0.000100853 0.0013395 0.000747388 0.00664534 0.0314333 0.0275637 0.0438918 0.0237132 0.0132069 0.0519103 0.03076 0.00994538 -0.0300701 -0.0292338 -0.0112759 -0.0354017 -0.0202836 0.00597386 -0.0133064 -0.00732819 0.0224735 0.012005 0.0152287 -0.00232471 -0.0220935 -0.00335987 0.00121 0.00340206 0.00474008 0.00628796 0.0059791 0.00824432 0.0193036 0.0233569 0.0353108 0.034528 0.0130588 0.0318468 0.0517744 0.0179632 -0.00442022 -0.00952978 -0.0318386 -0.00942261 0.00725933 0.000728773 -0.000341554 0.000609662 0.00629917 0.00836186 0.00665817 -0.0113107 -0.0117828 -0.00544141 0.00655002 0.0043299 0.000721649 0.00979381 0.0103149 0.00981865 0.0109835 -0.00274427 0.00330972 -0.00456331 0.00862233 -0.0166115 -0.00681577 -0.00378194 -0.0036412 0.00666088 -0.00144461 0.0128159 0.0086952 -0.0106267 -0.0148036 0.00269611 0.00352854 0.00582341 0.00518652 0.0046824 0.00100418 0.00316345 0.00911435 0.00216495 0.000618557 0.00731959 0.00812987 0.00806879 0.00295578 0.00994103 0.00764202 0.00732583 0.0036249 -0.00375826 -0.00398446 0.019633 0.0360473 0.0294328 -0.00118411 -0.00690085 -0.0119127 -0.023986 -0.0116465 -2.86674e-05 -0.000317095 0.000281147 0.00228849 0.00593372 0.00261265 0.00950806 0.00863772 0.00917526 0.00484536 0.0042268 0.00773145 1.32366e-05 0.00868603 0.00460177 0.00938771 0.0104392 0.0157814 0.0124739 0.00550345 0.00410142 0.00410872 -0.00164071 -0.000626388 0.00770991 0.0118744 0.00261985 -0.00490179 0.00198208 -0.000619823 0.00269419 0.00688609 0.000157618 0.00808791 0.00346495 0.00854911 0.00443299 0.01 0.00268041 0.0028866 0.0102062 0.00106441 0.00675368 0.00720808 0.0141903 0.01106 0.0063464 0.00945466 0.00584134 0.00379786 0.0119196 0.00785157 0.00482345 0.00538796 0.00198328 -0.00250925 0.00424161 -0.000618273 0.00266678 0.00738454 0.0054575 0.00492092 0.000103093 0.00773196 0.00453608 0.000721649 0.00123711 0.00948454 0.00938144 0.00237113 0.00525317 0.00781028 0.00529483 0.0152151 0.00693113 0.00971538 0.0135142 0.00818927 0.00506987 0.0130572 0.0132677 0.00804261 0.00517424 0.00813758 0.008505 0.00483533 -0.000604665 -0.00145803 0.00461204 0.0071134 0.000103093 0.00123711 0.00103093 0.00494845 0.00762887 0.0102062 0.00917526 0.00670103 0.00773196 0.0085567 0.00515464 0.00247423 0.0056701 0.00381443 0.00195876 0.00755868 0.00397007 0.00525773 0.00319588 0.00762887 0.00752577 0.00381443 0.00216495 0.00113402 0.00319588 0.00123711 0.00587629 0.00804124 0.00494845 0.00639175 0.00628866 0.000103093 0.00123711 0.0102062 0.00927835 0.00463918 0.00535871 0.00793993 0.00488985 0.00140601 0.00390248 0.0099107 0.00260929 0.00810121 0.00954454 0.00593204 0.0089385 0.00563054 0.00449741 0.00987835 0.00540177 0.00920147 0.000396055 0.00524785 0.00546392 0.000618557 0.00175258 0.00896907 0.000103093 0.0043299 0.00402062 0.00824742 0.00628639 0.00144252 0.000965084 0.00503635 0.00524181 0.00112298 -0.0022817 0.00186817 0.00673814 0.00645343 0.00665167 0.00868222 0.00509708 0.00730997 0.0101895 0.00592036 0.00625418 0.0084746 0.00143211 0.0100706 0.00903397 0.00199026 0.00899298 0.00659794 0.00608247 0.00907216 0.00371134 0.00846575 0.00546008 0.00569183 0.00182542 0.00619374 0.000956502 0.00433662 0.00313551 0.00300926 0.00290695 0.00568369 0.0061651 0.0016887 0.0102867 0.00429021 0.000668824 0.00702649 0.000152481 0.00496301 0.00321226 0.00840698 0.00537187 0.00442014 0.0073541 0.00206646 0.0042268 0.000103093 0.00515464 0.00663803 0.00889847 0.0097568 0.00491434 0.00631387 -0.00108531 -0.000928275 0.00406294 0.00310987 -0.000358657 0.000535959 0.00383777 0.0021864 0.000293371 -0.00405544 0.00296209 -0.000377599 0.00230282 0.00447377 0.0014946 0.00639702 0.00331801 0.00347425 0.00808968 0.00341656 0.00420757 0.00154639 0.000721649 0.00701424 0.00841409 0.00181236 2.60114e-05 -0.00160084 0.00194544 -0.0110896 -0.00756377 -0.0043397 0.012663 0.0169871 0.01952 0.00280986 -0.00867722 -0.00153241 -0.007333 -0.00347 -0.00613762 -0.000590066 0.00377215 0.000335441 0.00696442 0.00442625 0.00091847 0.00229684 0.00151797 0.00752577 0.00865964 0.000872139 0.00890507 0.00227986 -0.000799865 -0.00724672 -0.0109561 -0.00427501 0.00036385 0.014431 0.0121849 0.0163886 0.0178361 0.00300721 0.00242534 -0.00313561 0.00400534 -0.00357595 -0.00252137 0.00203341 -0.00447982 0.00149084 0.00639602 0.00589831 0.00219282 0.00264962 0.000107182 0.00371134 0.00772658 0.00436665 0.00584323 0.0102506 0.000649304 0.00139052 -0.0101857 0.00866036 0.0163893 0.0102953 -0.0017612 0.00742301 0.0107193 -0.00268466 -0.00701705 -0.00284355 -0.0123293 -0.000367669 0.00393219 0.00160843 -0.00556783 -0.00532892 0.00160393 0.00151466 0.00634739 0.0073933 0.00776536 0.00552729 0.00876732 0.00721075 0.0105425 0.00787813 0.00428375 0.00140358 0.000328087 0.0108277 0.00324259 -0.00414053 -0.0128059 -0.0101982 -0.00588316 0.00282494 -0.00463622 0.00179296 -0.013997 -0.00121261 0.00503751 -0.00308367 0.00527284 -0.00414221 -0.000320536 0.00290471 0.00635803 0.00691074 0.00801113 0 0.00365367 0.00756072 0.00787549 0.00772314 0.00927798 0.00978361 -0.00439876 0.00208039 -0.00527164 -0.000308842 -0.00447587 -0.0090813 -0.00192744 0.00512388 0.0120349 0.0178057 -0.0022634 -0.00647847 0.0047921 0.00749516 -0.00128535 0.00758936 0.00393097 0.00938424 -0.000429268 0.00609137 0.00924004 0.00175258 0.00769742 0.00317608 0.00515717 0.0143635 0.0252585 0.0159013 0.00257979 -0.0111366 -0.00599114 -0.0109398 -0.00566991 -0.00156079 -0.00460653 0.00752356 0.00655734 0.00965944 -0.0104169 -0.00826871 -0.0051474 0.00384509 0.000123709 0.0012124 0.00384654 0.00415946 0.00788029 0.00225455 0.00699695 0.000103093 0.00250868 0.00193545 0.00497635 0.0244773 0.0238205 0.0141019 0.00310097 -0.0105456 -0.0040311 -0.00604949 0.00558331 0.00534882 0.00585826 0.00266566 0.00897952 0.00475733 0.00417365 -0.00549017 0.00496492 -0.00316841 -0.00823963 0.00288241 0.0114485 0.00149067 0.000944933 0.00223951 0.00949228 0.00690722 0.00657745 0.000234125 0.00668463 0.0126887 0.0230259 0.00915858 -0.00224578 -0.0073083 -0.0007601 -0.0100045 -0.010511 0.00296265 -0.00223008 0.00158982 0.00485221 -0.00530218 0.00257365 0.00193332 -0.000441076 -0.00760279 5.9794e-05 -3.72021e-05 0.0108543 0.0032081 0.00189344 0.00160464 0.00494146 0.00979381 0.00776464 0.0032193 0.013132 0.01547 0.0120083 0.00584485 0.0107717 0.00386706 -0.00266462 -0.0122321 -0.0117594 0.000646136 0.00066073 0.00481109 0.0113417 0.00613165 -0.00760659 -0.00354991 0.00109529 -0.00495998 0.000546811 -0.0066826 0.00210265 0.00177739 0.00823582 0.00476861 0.00265858 0.00690722 0.00990434 0.00396312 0.00879852 0.0035202 0.00390047 0.00532282 -0.00193422 0.00735612 -0.000694759 -0.00192918 0.00179854 -0.00203957 0.00267382 -0.00286129 0.00164303 -0.00426447 -0.000372738 0.00302425 0.00284922 -0.00245517 0.000904195 -0.000619242 -0.00468671 -6.47183e-05 0.00880495 0.00479688 0.00865737 0.01 0.00289759 0.00556183 0.00835393 0.00792759 -0.00140621 0.0001688 0.00317402 0.00151618 0.00577958 0.00519734 0.0078086 0.00998262 0.00298247 0.00862384 0.0019515 -0.00348793 0.000696326 0.00556324 0.00457439 0.00619305 0.00118503 -0.00970005 -0.00397685 0.00249125 0.0045395 0.00165425 0.00938778 0.00773196 0.00443883 0.00847344 0.00938354 0.00620448 -0.00368988 -0.00240804 -0.00278602 4.28304e-05 -4.96863e-05 0.00753257 0.00850234 0.0118556 0.0135389 0.0116108 -0.00169661 0.00403779 -0.000359374 0.0110375 -0.00016364 0.00400999 0.000423829 -0.00214609 -0.00687468 0.00663234 0.00168196 0.0087959 0.00394126 0.000206186 0.000723481 0.007703 0.00200333 -0.00169303 -0.00810849 -0.00575163 -0.0024119 0.000934412 0.00499914 -0.00106414 -0.00492626 0.00571532 0.00927082 0.00591722 -0.0061442 0.000775356 -0.000204807 0.00234622 0.00691726 0.00952255 0.0126209 -0.00602578 -0.00925076 0.000879004 0.00738887 0.00889147 0.00534525 0.00670103 0.00474227 0.00431342 0.00695131 -0.000954839 0.00440868 -0.000116662 0.000126087 -0.00810787 -0.00513296 -0.0026399 -0.000964517 0.00620062 0.000813983 0.00260598 -0.000400836 -0.0117418 -0.00679727 -0.0121965 0.00167462 0.0205793 0.0050135 -0.000927396 -0.00158406 0.00628891 0.00702347 0.00168715 0.00349326 0.00371134 0.0015295 -0.000165086 0.0063539 0.00156602 0.00189732 0.00223943 -0.00418922 -0.0048663 0.00565115 0.0033273 0.00391092 0.000417147 -0.00277197 0.000703763 -0.00658019 -0.00504701 -0.0218515 -0.0143101 -0.000899023 0.0195446 0.00817308 0.00929676 -0.00302261 0.00611746 0.00686847 0.000492878 0.00659302 0.00226804 0.0084529 0.00684411 0.00836937 0.000521196 0.00237917 -0.0015338 -0.00935143 -0.0044973 -0.00574982 -0.00232658 -0.00852256 -0.0083983 -0.0010848 -0.00867122 -0.00418903 -0.00866708 -0.0138628 -0.0141696 -0.00112296 0.0157702 0.0196224 0.0184005 -0.001213 0.0072737 -9.48859e-05 0.000333812 0.0102062 0.0100007 0.00907237 0.004399 -0.000274177 0.00680917 -0.000300769 0.00522874 -0.00563607 -0.00747345 -0.00648964 -0.0148946 -0.0106738 -0.0107833 -0.00724002 -0.00416678 -0.00964602 -0.0033776 0.000738404 -0.0110052 4.60796e-05 0.00958219 0.0120836 0.0152513 0.00672936 0.00287746 0.00318869 0.00499301 0.000618557 0.00247486 0.000309483 0.00887925 -0.000398014 0.00432043 -0.00206906 0.00334757 -0.00493097 0.00286546 -0.00612668 -0.00538845 -0.00805212 -0.0124772 -0.0021569 -0.00912406 -0.00868019 -0.000196625 0.00772863 0.00266704 -0.000382739 0.00593209 0.0179652 0.00819879 0.00997531 0.00955043 0.000591681 0.00114566 0.00453608 0.00391753 0.00762887 0.00407042 0.00665206 0.00708676 0.00602434 -0.00271576 0.000846357 0.00573788 -0.000260738 -0.00336423 0.00206171 -0.00935804 -0.0138748 -0.0124338 -0.0105403 -0.0057881 0.00448228 0.00591285 0.00698172 0.0114668 0.0218083 0.0112826 0.00854852 0.00753135 0.00478542 0.0086661 0.00762887 0.01 0.0102062 0.00379356 0.00515529 0.00343579 0.00347776 0.00864112 0.00648093 0.000873378 -0.00402669 -0.00210756 0.00134711 -0.00340056 -0.00423458 -0.00754042 -0.00992987 -0.0079736 -0.00798802 0.00312893 0.0136205 0.0138104 0.0110364 0.00805904 0.00569717 0.00202147 0.00537569 0.00595912 0.0071134 0.00979381 0.00505155 0.00948461 0.00499808 0.00282377 0.000810592 0.00786187 0.00418234 0.00274287 -0.00191902 0.00623974 0.00314127 0.0012649 -0.00242104 -0.000987387 -0.004728 0.00164496 -0.00202393 0.000943915 0.0146626 0.016812 0.00634365 -0.00198834 0.00512558 0.00420229 0.00988242 0.00554967 0.00690722 0.00484536 0.00938144 0.00938144 0.00597938 0.00896134 0.00930488 0.00267509 0.00802642 0.00882094 0.00501584 0.0104041 0.0103816 0.00548022 0.00892323 0.00465603 0.00362947 0.004324 0.00654569 4.63291e-06 0.00682419 0.00631559 0.00804047 0.0112736 0.000835394 0.00466338 0.00608247 0.00793814 0.00721649 0.00319588 0.00257732 0.00731959 0.00154639 0.00340206 0.004943 0.00391011 0.00229519 0.00109874 0.0021824 0.00108211 0.00741779 0.00740452 0.00130488 0.00315594 0.00818356 0.00587487 0.00015433 0.00837243 0.00393468 0.0107343 0.00444179 0.00984084 0.00822558 0.000309278 0.00216495 0.00701031 0.000824742 0.00824742 0.00896907 0.00597938 0.00752577 0.00989691 0.00886598 0.000927835 0.00556701 0.000206186 0.00587629 0.00670103 0.0056701 0.00330141 0.00608782 0.0085567 0.00412371 0.00381443 0.00381443 0.00319588 0.0071134 0.00340206 0.0071134 0.000721649 0.00268041 0.00360825 0.00865979 0.00680412 0.0028866 0.00226804 0.00206186 0.00989691 0.0056701 0.000721649 0.00958841 0.00622097 0.00595111 0.00623309 0.00362953 0.00026593 0.010037 0.00820877 0.00393963 0.00406041 0.00179358 0.00728039 0.00573333 0.00442273 0.00246581 0.00180455 0.00274125 0.00834696 0.00329897 0.00886598 0.00969072 0.00886598 0.00917526 0.00927835 0.0071134 0.00958763 0.00453507 0.00463883 0.00626812 0.0093625 0.00490342 0.00384762 0.00756394 0.00704919 0.00843755 0.0100442 0.0106111 0.00422994 -5.55876e-05 -0.000587574 0.00236767 0.00416609 -0.000423276 0.00889841 0.00254893 0.00610709 0.00858407 0.00399871 0.00419187 0.00103093 0.00175258 0.00587629 0.00216495 0.00265767 0.0100946 0.00492351 0.00634961 0.00348942 0.00671186 0.00760068 0.000473063 0.00714194 0.014646 0.0195603 0.0086706 0.0048368 0.00592958 0.00866251 0.0093978 -0.00242826 0.00756617 -0.00305617 0.00619767 0.00010055 0.00299894 0.0041533 0.000364202 0.00794089 0.0042268 0.00721649 0.00731959 0.00507993 0.005821 0.00303345 -0.000544104 0.0035409 0.00553845 0.00666845 -0.00695889 0.00941917 0.00747105 0.0154847 0.00878571 -0.00290232 -0.0123454 -0.00249217 -0.0025795 0.000642151 -0.0033793 -0.0049693 -0.00764026 -0.00630718 0.00484439 0.00284777 0.00433442 0.00742627 0.0016738 0.00896907 0.00175258 0.00206547 0.00686577 0.00719807 0.00162141 0.00342282 -0.00116185 -0.0145233 -0.0133796 0.00363839 -0.00174714 0.00405806 0.00330113 0.00187094 0.00626577 -0.00168284 0.000468665 0.000798441 -0.00295048 -0.000260311 0.000146496 0.00195644 0.00414867 0.00524512 0.00637243 0.000752983 0.00173467 0.0102062 0.00237131 0.00303543 0.00615153 0.000912615 0.00279429 -0.00351037 -0.00627627 -0.0118527 -0.00836679 0.0033262 0.00432745 0.012228 -0.00392515 0.00193674 0.000714701 0.00462734 0.000908159 -0.0127018 -0.00507891 -0.0150627 -0.00638741 -0.00445755 -0.00248108 0.00818644 0.0072719 0.00306085 0.0037502 0.00113402 0.00917375 0.00569121 7.42939e-05 -0.000408176 0.00219528 0.00223072 -0.0024557 0.00360182 0.00276852 0.00668651 0.0124965 -0.00480301 -0.0069488 5.2569e-06 0.00172925 -0.00050409 -0.0120844 -0.0181114 -0.0181506 -0.00718271 -0.0105928 -0.00718992 -0.00503799 0.00142382 0.00237727 0.000190334 0.00799256 0.00309268 0.00946638 0.00449418 0.000897869 0.00644198 -0.0031481 -0.00261214 -0.00493616 0.00578728 0.00924227 0.00146485 0.00679756 0.00253096 -0.00374024 -0.0012853 -0.00150843 -0.000770738 -0.00524544 -0.0164357 -0.0139906 -0.00913504 -0.00531477 -0.0136785 -0.00451172 -0.00136984 0.00469933 0.00613898 0.00916376 0.00886598 0.00280649 0.00338902 0.00812981 0.00682175 -0.00319948 -0.00205915 -0.00055592 0.00178634 0.00220946 0.00234998 0.00960965 0.00971195 0.00716379 0.00329963 0.0116892 -0.00470659 0.00158067 -0.00558929 -0.00103196 -0.000860549 -0.00432446 -0.00178383 -0.00567492 -0.00131681 -0.00190845 0.000720437 0.00679098 0.00505155 0.0049892 0.00635829 4.18681e-05 0.000380861 -0.00163457 -0.00360664 -0.00749325 -0.0019038 -0.00713899 -0.00122568 -0.00146623 0.00422677 -0.000309385 -0.00476222 -0.0042032 0.000317497 0.000923113 0.00109142 0.00510602 0.00672818 -0.00354593 -0.00895229 -0.00520154 0.00416988 -0.0021113 0.00418042 0.00225073 0.000824742 0.00231613 0.00736091 -0.0012256 0.00335117 -0.00530864 -0.0079773 -0.0112998 -0.000429942 -0.00546585 -0.00279325 -0.00747431 -0.00497822 -0.00277951 -0.00950727 -0.00331626 -0.00140082 -0.00729464 -0.00407193 0.00178052 0.00495827 0.00535551 -0.00786256 -0.00388216 0.00375707 0.0100337 0.00399415 0.00443571 0.00195876 0.010164 0.00477654 0.00388329 -0.00132218 -0.0100424 -0.0118923 -0.00865507 0.00283672 -0.000727862 -0.0103135 0.0025996 -0.00104368 -0.000299881 0.00939496 -0.00412584 -0.00310611 -0.0169301 -0.0158256 -0.0163401 0.00391734 0.00636342 0.00236858 -0.00623076 0.0099271 0.00974194 0.00184755 0.00743914 0.0042268 0.000189185 0.000131995 0.00160961 -0.00107031 -0.0091779 -0.0108616 -0.00675328 0.00137162 0.00277612 0.00212129 0.0039029 0.00815766 0.00561252 -0.00235655 -0.00700535 -0.010698 -0.00975139 -0.017648 -0.0178012 0.00251981 0.00439718 -0.00122402 -0.00442505 0.011451 0.0137265 0.00230933 0.00114113 0.00206186 0.000977075 0.0038217 0.00315617 -0.00253191 -0.00652968 -0.00283994 -0.00482941 -0.00198626 0.0104408 0.0148773 0.0195661 0.0144486 -0.000996201 -0.000519821 -0.00865158 -0.00963889 -0.0220333 -0.0214436 -0.0131852 -0.00399479 -0.00718237 -0.000840122 -0.00454544 0.00676795 0.0180248 0.00550833 0.00743494 0.00247423 0.00760834 0.00485504 0.00774419 0.00605214 -0.0047962 0.00604532 0.00560255 0.0117859 0.0230487 0.0174787 0.0252927 0.0130297 0.0171141 0.00323276 -0.00719643 -0.0066514 -0.00257807 -0.00628967 -0.00339162 -0.0190719 -0.0094161 0.00027413 0.000529283 0.00530572 0.011697 0.00662244 0.00908298 0.00329897 0.00679556 -0.000138927 0.0034947 0.00829388 0.00277348 0.0192092 0.0125384 0.0122083 0.0219424 0.0259009 0.019676 0.00235442 0.0171751 0.0134047 -0.00519748 -0.0025591 0.00848333 -0.000200544 -0.00871022 -0.0160991 -0.000729007 0.00775598 0.0132596 0.0142443 0.0174093 0.0101438 0.00587332 0.01 0.000305993 0.00898166 0.00752415 0.0114505 0.00536869 0.0199877 0.0177431 0.00518731 0.0100678 0.0179802 0.00469876 0.00461005 0.0180473 0.0215625 0.00471531 -0.00515173 -0.0105229 -0.00406837 -0.00957972 -0.00821222 0.00258516 0.015851 0.00226825 0.00222021 0.0108715 0.000844183 0.00139656 0.00938144 0.0057732 0.00115927 0.00275687 0.00713397 0.0108185 0.0109887 0.00896019 -0.000955529 0.00471107 0.0134194 -0.00378776 -0.00193398 0.000159945 0.0089824 0.00544988 -0.00368109 0.00153455 0.00442236 -0.00275043 0.00239986 0.0096825 0.00858404 0.0105515 -0.000595409 0.0153173 0.00662732 0.00672147 0.01 0.00709978 0.00300519 0.0056119 0.0154654 0.0075653 0.00686223 0.00476397 -0.0161663 0.00394352 0.0173083 0.00369125 -0.0144897 -0.00369128 -0.00175852 -0.00746876 0.00486354 0.00761057 0.0133248 0.000595007 0.00479452 0.0100068 0.0128378 0.0184982 0.00659369 0.0127591 0.0108618 0.00680913 0.00371134 0.00494776 0.00187687 0.00750611 0.00614732 0.00395699 0.00654979 0.00465232 -0.00402618 0.00875541 0.015534 0.0128618 0.00443173 -0.0126861 -0.00754559 0.00693617 0.0127244 0.0106164 0.00859635 0.00659942 -0.00273595 0.0146068 0.0180104 0.0236419 0.00713088 0.00780697 0.00995242 0.00824742 0.00721624 0.00680405 0.00558813 0.00757558 0.00400685 0.00404853 0.00136083 0.00578792 -0.00184313 0.00185722 0.00975924 0.00775384 0.003432 -0.00362523 0.000463094 0.00169385 -0.0042028 0.00510351 0.00582586 0.00775305 0.00596661 0.00601221 0.0144397 0.0148328 0.0118291 0.00126417 0.00188668 0.00639175 0.00536058 0.00443291 0.00892547 0.00685388 0.00629262 0.00462658 0.000261264 0.00551283 0.0118569 0.000310405 -0.00194397 0.000728886 -0.00137117 -0.00446893 -0.00859741 0.00432284 -0.00627926 -0.0104396 0.0025157 0.00603219 0.00319946 0.000122466 0.0107614 0.0129656 0.00261719 0.00214594 0.00188579 0.000618557 0.00350515 0.0028866 0.00234789 0.00706712 0.00744612 0.00306747 -0.00309426 -0.00370197 0.00132102 -0.00412859 -0.00497943 -0.00727103 -0.00351792 -0.00647606 -0.0107001 -0.00610629 -0.00157741 -0.00338833 -0.00219153 0.00546786 0.00568954 0.00161754 0.00837002 0.00615688 -0.00177455 -0.000182679 0.00799756 0.00154639 0.00793814 0.0071134 0.00882534 0.00532421 0.000670013 -0.00306009 0.00181002 -0.00392203 -0.00195869 -0.00206503 -0.00640657 -0.0036633 -0.00583639 -0.00190935 -0.00302802 0.00647256 0.00472092 -0.00123025 0.00144129 0.00394475 0.00133806 0.00624478 0.00543398 0.00558519 0.00383477 0.00109985 0.00396807 0.00938144 0.00113402 0.0014433 0.000516356 0.00861278 0.00525534 0.00506329 -0.00149127 0.0015258 -0.00173443 -0.00491263 0.000882502 -0.00118673 -0.000328511 0.0025412 0.0024729 0.00292759 0.0057499 0.00227598 0.00689486 -0.00258852 -0.000604969 0.00394791 0.00504879 0.0114097 0.00268613 0.00169077 0.00695661 0.00793814 0.00391753 0.00587629 0.00989691 0.00659794 0.00805872 0.00209235 0.00498808 0.000711843 0.00661611 0.00448443 0.00864809 0.00525309 0.00783068 -0.000807662 0.00371572 0.00464796 0.00299091 0.0050499 0.000988827 0.00130442 0.00775203 0.00953872 0.00911415 0.00915634 0.00752641 0.00505155 0.00721649 0.00195876 0.0014433 0.00597938 0.00505155 0.00360825 0.00154639 0.00257064 0.00204499 0.00753051 0.0050169 0.00316363 0.00636384 0.00050854 0.00582078 0.00315364 0.00640058 0.00314728 0.00456297 0.00555628 0.00189414 0.00187262 0.00575408 0.00636945 0.00126163 0.00298221 0.00484536 0.0102062 0.0028866 0.00587629 0.00164948 0.000618557 0.00618557 0.000515464 0.000515464 0.00969072 0.00371134 0.00989691 0.00845361 0.00453608 0.00340206 0.00154639 0.00483029 0.00563711 0.00463918 0.00886598 0.000103093 0.01 0.00835052 0.0102062 0.0042268 0.00453608 0.00536082 0.0043299 0.00237113 0.00298969 0.00515464 0.00649485 0.00103093 0.00835052 0.0028866 0.00268041 0.00958763 0.00175301 0.00182301 0.00591349 0.00802531 0.00645152 0.00231943 0.00775034 0.00725324 0.000331616 0.00858795 0.000902108 0.0038348 0.00701455 0.00152013 0.00985163 0.00416993 0.00990868 0.00133265 0.00360825 0.00845361 0.00896907 0.0043299 0.00876289 0.00381443 0.000206186 0.00206186 0.00845377 0.00835057 0.00980665 0.00295866 0.00321039 0.000525834 0.00848019 0.00438 0.00396194 0.00095309 -0.000452702 -0.00168503 0.0044804 0.00415296 0.00402206 0.00556042 0.00518911 0.00675867 0.00477181 0.00541649 0.0100307 0.00748098 0.0024847 0.00412371 0.0014433 0.00948454 0.0071134 0.00949376 0.00319921 0.00705315 0.00926214 0.000908126 0.00260553 0.00331459 0.00695393 0.00123893 0.00619898 0.00448651 0.0013945 -0.000320226 -0.00785976 -0.0106998 -0.00280874 0.00128658 0.00832364 0.00969568 0.00739846 -0.00070615 0.00267825 0.00244313 0.00815722 0.00603539 0.0085567 0.00319588 0.00164948 0.00641791 0.00156578 0.0080605 0.00182347 -0.000454079 -0.00563506 0.00566859 0.00604923 0.0101338 0.00933868 -0.00744307 -0.0186268 -0.0110057 -0.00147571 -0.00249877 -0.0100288 -0.00200393 -0.00375159 -0.000837457 -0.000741488 0.00409233 -0.0021296 0.00631485 0.00320584 0.00122264 0.00159743 0.00731959 0.00371134 0.00605273 0.00742619 0.00526922 -0.00438077 0.0101141 0.0137328 -0.010946 -0.0101481 -0.0125362 -0.0056996 -0.00063949 0.00108966 0.0123836 0.0202629 0.0165926 -0.00503073 -0.0381936 -0.0279516 -0.00890622 -2.73079e-05 -0.00496573 0.000585053 0.000968572 0.0052636 0.00728905 0.00229421 0.00195876 0.00505226 0.00536249 0.00875078 0.0061528 -0.000971154 0.00413411 0.0172503 -0.0117397 -0.0145169 -0.00469496 0.0152837 0.0148017 0.0128497 0.00489047 0.0182622 0.00703652 -0.000774162 -0.000574452 -0.0052282 0.0032136 -0.00580842 -0.000847081 0.00624122 0.00422787 0.00875032 0.00865726 0.00566995 0.00412371 0.00662182 0.0070528 -0.00505493 0.00466787 5.51985e-05 0.0251502 0.0310771 0.0237857 0.00191978 -0.00301141 -0.0214325 -0.0324339 -0.0266841 -0.0206224 -0.00761238 -0.00861166 -0.01143 -0.0103554 0.00038168 0.00610317 -0.00181723 -0.00750204 0.00471535 0.0103817 0.0102875 0.00289154 0.00985463 0.00257905 0.00871318 0.00177607 -0.00833321 -0.0194131 -0.00679315 0.000283824 0.0258889 0.026496 0.0127683 0.0154598 -0.0103908 -0.00242951 -0.0259539 -0.0232409 -0.0207104 0.000426332 -0.0241013 -0.00952066 -0.00973841 -0.00577338 0.00865759 -0.00215172 -0.00307436 0.0134825 0.00277437 0.00782707 0.0100374 0.00835052 0.00618038 -0.00312128 -0.0173867 -0.00571306 0.00994823 0.01189 0.0260438 0.0344926 0.0266624 -0.00587603 -0.0076088 0.0126114 0.0161064 0.00567185 -0.0207881 -0.0011684 -0.000746541 -0.0118813 -0.00388374 -0.000336999 0.0104312 -0.00181418 0.0171653 0.0113989 0.011448 0.00515128 0.00548757 0.00536082 0.00625113 -0.00384412 -0.00364797 0.0214917 0.0264872 0.0179205 0.0134115 0.0368181 0.0148117 -0.000835481 0.016187 -0.00566761 0.00631655 -0.0087234 0.0110454 -0.00973233 -0.000835198 0.00974979 0.00542544 0.00578949 0.00229648 0.00922886 0.013833 0.00361882 0.00672295 0.00697081 0.00859765 0.00402062 0.00938203 0.00542636 0.0136335 0.033319 0.0131009 -0.00495019 -0.0114823 -0.0203908 -0.0295931 -0.0242665 -0.0267347 -0.0555363 -0.0397799 -0.0163182 0.00364698 -0.016422 -0.0245506 0.00849718 0.000350589 -0.00673571 -0.0210313 -0.00297878 0.00405565 0.00425251 0.013492 0.0102118 0.000368779 0.00948454 0.00185543 0.00543964 0.0202794 0.0153617 0.00706224 -0.0177036 -0.0215768 -0.039168 -0.0438174 -0.0253087 -0.0204231 -0.032987 -0.0433246 -0.0157324 0.000768298 -0.0255193 -0.0148533 0.000736496 -0.00642795 -0.0250228 -0.0252075 -0.016312 -0.0140448 -0.00396866 0.00570445 0.00932942 0.00391279 0.00804124 0.00521298 0.00514182 0.0121746 0.00424069 -0.00349631 -0.00848604 -0.0119782 -0.0399051 -0.0441275 -0.0327344 -0.00441693 0.00547423 0.0131093 -0.00289355 -0.00467543 -0.014438 -0.0289864 -0.0331103 -0.0334082 -0.0452654 -0.0290168 -0.0271565 -0.0170512 -0.00504656 0.0013565 0.00196558 0.00851273 0.00639175 0.00494621 0.0100538 0.00718396 -0.00814096 -0.0125599 -0.0215533 -0.0364826 -0.0340319 -0.0304741 -0.0132422 -0.0146865 -0.0116372 0.0225011 0.0491034 0.0427137 0.0196649 -0.0240246 -0.0582526 -0.0399415 -0.0478106 -0.0351555 -0.0252181 -0.01457 0.000300158 0.00722867 0.00813414 0.00930786 0.00721649 0.00340381 0.00161368 -0.00223828 -0.0145488 -0.00992082 -0.00733891 -0.0223691 -0.0355966 -0.0185892 0.000763199 -0.0268877 -0.0297703 0.016302 0.0724324 0.0791174 0.0510342 0.00510146 0.00306501 0.00532743 -0.00939202 -0.0165885 -0.00385029 0.0041883 0.0106593 0.00682968 0.0034911 0.00313262 0.01 0.00206249 0.00421434 -0.00041291 -0.00736434 -0.00922339 -0.00307184 -0.0100321 -0.0217629 -0.0120018 -0.0331464 -0.0473411 -0.00974434 0.0172765 0.00609424 0.0177159 0.0196442 0.0320044 0.0420592 0.0313896 0.0132064 0.0243386 0.00833899 -0.00542196 0.00817427 0.000605166 0.00663894 0.000297593 0.00608247 0.00240546 0.0016308 0.00485884 0.00189383 -0.00577353 -0.00974706 -0.000624608 -0.0173144 -0.0368475 -0.0545165 -0.0427218 -0.0183923 -0.0265753 -0.011318 -0.0142803 0.00523006 0.0136252 0.0124552 0.0357155 0.0098318 0.031977 0.0169356 -0.00494167 0.000812891 0.0020409 0.00500339 0.00794449 0.00134021 0.00835052 0.00705585 0.00176354 0.00338876 0.00255593 -0.0109567 -0.0251625 -0.0293714 -0.0318947 -0.0263398 -0.0078238 -0.00917583 -0.019668 -0.00584864 -0.0142326 -0.00136069 0.00219423 0.00107315 0.0342268 0.0306321 0.0186565 0.0023382 -0.016273 0.0033108 0.000752787 0.0036317 0.0021236 0.0102062 0.00592519 0.0086848 0.00779716 0.00131466 0.000214718 -0.0116553 -0.0237403 -0.0256886 -0.00562813 0.0141402 -0.00534803 -0.0128795 -0.0247108 -0.010073 -0.02421 -0.0362446 -0.00894659 -0.00367142 0.0289429 0.0213983 0.0309492 0.0137931 -0.0228322 -0.00128053 0.00234416 0.00685578 0.00906096 0.00340206 0.00319235 0.0097025 0.00188174 0.00761986 0.00833062 -0.00553475 -0.0160636 -0.00507902 0.00697104 0.0213634 -0.00135338 -0.0216178 -0.0150114 -0.0236072 -0.0155543 -0.0250492 -0.0342271 -0.000603256 0.030067 0.033298 0.0362519 0.0186413 -0.0118017 -0.0139647 0.00211384 0.0040887 0.00876289 0.00824523 0.00484467 0.00448397 0.0100256 0.00714128 0.00958679 -0.00510421 -0.00314703 -0.0251423 -0.00378239 -0.00381748 -0.014004 -0.007636 -0.00713635 -0.00835674 -0.0173231 -0.0158852 -0.0128823 0.0142482 0.0229149 0.0306892 0.0322046 0.00195713 -0.0219581 -0.00638354 -0.0018095 0.00177128 0.00731959 0.000307137 0.00628797 0.00414272 0.00998204 0.0164975 0.0161928 0.0101705 0.00755419 0.00216688 -0.0228646 -0.0432721 -0.034088 -0.0269531 -0.0240608 -0.022824 -0.0313865 -0.00645773 0.0362464 0.0511648 0.0288605 0.0249271 0.00873916 -0.000537192 -0.00720007 -0.00638523 0.00502524 0.00714215 0.00175258 0.00268041 0.00494845 0.0058861 0.0113339 0.0145916 0.0152596 0.0143797 0.010281 0.00312475 0.00342351 -0.0194032 -0.0317443 -0.0401275 -0.0143201 -0.0056417 0.0187435 0.041533 0.0443968 0.0438377 0.0118552 -0.0166052 -0.0134148 -0.00927728 -0.00104689 4.87155e-05 0.00194339 0.00590757 0.00773196 0.000515464 0.000309278 0.0100036 0.00877074 0.0113159 0.00838248 0.0110128 0.00642284 0.0127167 0.00820297 0.00237786 -0.00152148 -0.0085769 -0.00145571 0.0158976 0.0371361 0.0350042 0.0412806 -0.0104809 -0.0149082 -0.0187226 -0.0045065 -0.00348138 0.00384371 0.00275699 -0.000105442 0.00245576 0.00195876 0.000309278 0.00958763 0.00671565 0.00373796 0.00307921 0.0106059 0.01377 0.00910079 0.015423 0.00936776 0.0144232 0.0175373 0.0278167 0.021898 0.00145634 0.0174051 0.0132787 -0.0107594 -0.0125994 0.00924578 0.0182353 0.00288014 -0.000387534 0.00419922 0.00999597 0.00771665 0.00719817 0.00309278 0.00412371 0.00865979 0.00381443 0.00690722 0.00973753 0.00868248 0.00573409 0.00895529 0.00983933 0.00909264 0.00161739 0.00339204 -0.00267805 -0.00344297 -0.0170796 -0.00702812 -0.000588415 0.001268 0.00638211 0.00707766 0.00594132 -0.00217523 0.000952184 0.00841812 0.00907223 0.00608247 0.00927835 0.00814433 0.00164948 0.00804124 0.00731959 0.00907216 0.00247423 2.91079e-06 0.00247145 0.00239569 0.00726333 0.0104006 0.00536878 0.00860897 0.00387728 0.00685926 0.0021098 0.00237187 0.00754257 0.00552128 0.00162023 0.00170989 -0.000779707 0.00333463 0.00161464 0.00177279 0.0056701 0.00546392 0.00680412 0.00494845 0.00268041 0.00206186 0.00391753 0.00824742 0.00608247 0.00453608 0.00536082 0.00463918 0.00278351 0.00865979 0.00329897 0.00391753 0.0028708 0.00924376 0.00257732 0.000515464 0.000412371 0.00123711 0.00814433 0.00649485 0.00701031 0.000721649 0.00525773 0.00278351 0.00886598 0.00824742 0.00680412 0.00742268 0.00175258 0.0057732 0.00690722 0.00319588 0.00309278 0.000313461 0.00345078 0.000665221 0.00596296 0.00574223 0.00149139 0.00932961 0.0016681 0.00994963 0.00709946 0.00504576 0.00642085 0.00502303 0.00219358 0.00690264 0.00454441 0.00879331 0.00112805 0.00329897 0.0043299 0.00969072 0.00804124 0.00536082 0.00103093 0.00206186 0.00463918 0.00731892 0.00896884 0.00874649 0.00321649 0.0092574 0.00665617 0.0037029 0.0102777 0.00691882 0.00862727 0.000399043 0.00243782 0.0049821 0.00418729 0.00786868 0.00301609 0.00678929 0.00441876 0.00102154 6.21847e-05 0.00521144 0.00793723 0.00589743 0.00350515 0.00515464 0.00103093 0.00443299 0.00454352 0.000411661 0.0100492 0.00780848 0.00588567 0.0047572 -0.000505858 0.00195519 0.00826922 0.00182804 -0.00383548 0.00282597 -0.00531287 0.00226469 -0.000502054 0.000983884 0.00337793 0.00175712 0.00747924 0.00655463 -0.000652783 0.00691249 0.003779 0.00832361 0.00380074 0.00721649 0.00257732 0.0056701 0.00590131 0.00143965 0.000426477 0.00901619 -0.00115961 0.000366662 0.0070751 0.00370899 -0.00533856 -0.00357512 -0.00435108 -0.00226139 -0.00597394 -0.00418422 -0.0136932 -0.0139189 -0.00986969 -0.0097814 -0.00420381 -0.00268759 0.0005346 -0.000467934 -0.000689689 0.00891983 0.00179217 0.00689274 0.00268041 0.00402062 0.00433374 0.00654612 0.00522179 0.0259771 0.0376191 0.0230845 0.0147155 0.00389955 -0.00602345 -0.0110707 -0.0120074 -0.0096785 -0.0220012 -0.0152784 -0.0177195 -0.0185288 -0.0239926 -0.0212295 -0.0100036 -0.00563332 -0.00691425 0.000982572 0.00447714 0.00583511 0.00745908 0.0087415 0.00536082 0.00474221 0.00561057 0.00648458 0.0127193 0.0302426 0.0483314 0.0339392 0.0244532 0.0203447 0.0358679 0.0378171 0.0347919 0.0142536 -0.0183271 -0.0106141 -0.0144423 0.00641153 -0.00158137 -0.00492679 0.0021365 0.0195911 0.0137409 -0.00107301 -0.00438947 -0.000913737 0.00415845 0.00316255 0.00226804 0.00712467 0.0100254 0.00470342 -0.00601236 0.00592818 0.0268725 0.0401171 0.020006 0.0174261 0.0501993 0.0437295 0.0103369 0.00154183 -0.0245434 -0.0366751 -0.0160192 0.0147293 0.00188422 0.00636603 0.00801383 0.00204194 0.019242 0.0251273 0.00100028 -0.000343507 0.00136857 0.00280685 0.00359034 0.0096817 0.00927336 0.00974943 -0.0238241 0.00180572 -0.00229671 0.0207886 0.0374065 0.0283002 0.0285208 0.017602 0.00404741 0.0107463 0.016158 0.0265011 0.00835912 0.00687018 0.0153262 0.019115 0.0257858 0.0118514 -0.000264173 0.0204167 0.0108799 -0.00280633 0.00436436 0.00908237 0.00793814 0.00846465 0.00111216 0.00170344 -0.0137 0.00852504 0.00901257 -0.00596508 0.0131933 0.0078928 -0.00257091 0.00569045 0.00771427 0.0120405 0.0122682 -0.00319089 -0.0189367 -0.000621548 0.0023817 0.0195008 0.0318032 0.0299164 0.00594035 -0.00473167 0.00340655 -0.00227958 0.000317851 0.00175789 0.00927835 0.00523648 0.00210438 0.00260795 -0.00206389 0.0255676 0.012229 0.0122391 0.00424627 -0.000438958 -0.0154382 -0.00297214 -0.0165209 -0.0229298 -0.0539504 -0.0442291 -0.0501177 -0.00867746 -0.0102867 0.0100742 0.0209139 0.00812463 -0.00647152 -0.00345517 -0.00820384 0.00495416 0.00298372 0.00150769 0.00154639 0.00111327 0.000959208 0.00617657 -0.000765377 0.0139224 0.00737025 0.00869661 0.0131481 0.0168833 -0.00803724 -0.0166878 -0.0237663 -0.0421572 -0.0596836 -0.0675525 -0.031671 -0.0167417 0.00634053 0.00539939 0.0198729 -0.00672881 -0.0205605 -0.000884956 0.0017591 0.000106657 0.00828385 0.00951485 0.00659794 0.00173336 0.00810065 0.0021398 -0.00764756 0.00312946 -0.00346146 -0.00228047 0.00793535 -0.010427 -0.0338889 -0.0328851 -0.0352692 -0.0656489 -0.064112 -0.0521528 -0.0084408 -0.00534528 0.0170992 -0.00582485 0.000351425 -0.018339 -0.0202816 -0.0126362 0.000277366 0.00883267 0.000470591 0.00151173 0.00989691 0.00373546 0.0101182 0.00426735 -0.00213326 -0.0145533 -0.0162033 -0.000706317 0.00243067 -0.0149168 -0.034136 -0.0461555 -0.0457051 -0.0523366 -0.0517273 -0.0323246 0.0172438 0.00178162 -0.0054317 -0.0225278 -0.022278 -0.0169818 -0.0145497 -0.00595569 -0.000275528 0.00472854 0.00151182 0.00531455 0.00773196 0.00727281 0.00977243 0.00239094 -0.00583828 -0.0121862 -0.0110083 -0.00245184 -0.00766636 -0.0303411 -0.0436268 -0.0435517 -0.0491695 -0.0471721 -0.0282483 -0.0101939 -0.00800981 0.00883906 -0.0066643 -0.0209215 -0.0327451 -0.0107902 -0.00427728 -0.00400528 0.00188911 0.0104914 0.00294541 0.00290438 0.00701031 0.00167509 0.00783116 0.00304404 -0.00468603 -0.0273946 -0.0166697 -0.0119749 -0.0328822 -0.0303235 -0.043498 -0.0472282 -0.0603043 -0.0533393 -0.0373957 -0.0178906 -0.0116296 0.0145119 0.00611121 -0.0162988 -0.0218341 -0.00910831 -0.00666026 -0.00332249 0.00294802 0.00209183 0.00551837 0.000504707 0.00783505 0.00881684 0.00730247 0.00413958 -0.00549878 -0.0284954 -0.0206174 -0.039787 -0.0344473 -0.0313761 -0.0390634 -0.0400321 -0.032828 -0.0310327 -0.010812 -0.00129953 0.0095061 0.0317779 0.0173898 -0.00240923 -0.00395298 -0.00618367 -0.00259646 0.0018935 0.00594767 0.000968503 0.00545986 0.00298016 0.000309278 8.4159e-05 0.0055453 0.00206816 -0.0119798 -0.0155197 -0.0244619 -0.035448 -0.00736563 0.0145835 0.0288539 0.0220762 -0.00223568 -0.00406759 0.0231018 0.0196895 0.0200918 0.0148848 0.0129492 0.0164247 0.000451384 0.0118806 0.0121673 -0.00279785 -0.00694721 0.00218987 0.00659867 0.00126605 0.00546392 0.00649485 0.00623873 0.00588727 -0.002876 -0.00212701 -0.000218031 0.0105096 0.0303001 0.0409269 0.0416987 0.0124559 0.0101439 0.0343824 0.0268413 0.0191738 0.0339474 0.0192998 0.00485343 -0.00611962 -0.00727465 -0.00232023 0.00665126 -0.0174243 -0.0031051 0.00836004 0.00421376 0.00605691 0.00175258 0.0080231 0.00732156 0.00204438 0.00316205 0.00185345 0.000450429 0.0114855 0.0303146 0.0419185 0.0175363 0.0132595 0.00419654 0.00991631 0.0284133 0.029635 0.0313468 0.00189907 -0.0160113 -0.00899284 -0.00124517 0.00110842 0.00371547 -0.00156775 0.0130354 0.000995328 0.0102993 0.00907704 0.000824742 0.00493736 0.00232921 0.001761 0.000765331 -0.00775491 -0.0144849 -0.0153855 -0.00649997 -0.028203 -0.0216352 0.00414446 0.0302438 0.0173378 0.00804047 -0.000629037 -0.0311049 -0.0373548 -0.0279427 -0.0187545 -0.00970498 -0.0184437 -0.0118083 -0.000440509 0.00896778 0.00247093 0.000252602 0.00814433 8.66917e-05 0.00669589 0.00811456 0.00262133 -0.00227502 -0.00912427 -0.0232309 -0.0317731 -0.042747 -0.0541951 -0.0231843 0.015277 0.0381234 0.00764577 -0.0119532 -0.0411523 -0.0366475 -0.035014 -0.0346843 -0.00859462 -0.00544223 -0.0138449 -0.0060612 0.0042992 0.00128371 0.00347907 0.00640611 0.00958763 0.000293271 0.00473712 0.00138469 -0.00204815 0.00130608 0.00493241 -0.00795466 -0.0154 -0.0266477 -0.0140054 0.00582723 0.0224231 0.0213398 -0.0143012 -0.0196465 -0.024928 -0.0294243 -0.0354094 -0.0211605 -0.00656015 -0.000788602 -0.00409589 0.00530077 0.00491073 0.00436708 0.0049337 0.00251258 0.00391753 0.00948454 0.00886598 0.00730071 -0.00256076 0.00470232 0.0106906 0.0203541 0.0159212 -0.0333015 -0.00831501 0.0135824 0.0269919 0.019705 -0.0240579 -0.0192558 -0.0301679 -0.00831388 -0.0052621 -0.0263136 -0.00449222 0.00228932 -0.00123574 0.000419893 -0.00892447 0.00958793 0.00249302 0.00584493 0.00876289 0.0028866 0.00309278 0.00702838 0.00697139 0.0125246 0.0179327 0.0177362 -0.0108908 -0.00905784 0.0161379 0.0181488 0.0355466 0.0129848 -0.0164974 -0.00796162 -0.00431718 -0.00784741 -0.0107144 -0.0271591 -0.014735 -0.000685825 -0.00671198 -0.0142757 -0.000340048 0.00458552 0.0046768 0.00306132 0.00319588 0.00958763 0 0.00150701 0.00156448 -0.00838011 -0.0179495 -0.012616 -0.00660971 0.00692572 0.0215921 -0.00994486 0.00860613 0.0278799 0.00839773 -0.000766401 -0.0045345 -0.00364409 -0.0154255 -0.0191572 -0.0196688 -0.00101874 0.00599964 0.00659664 0.00408644 0.00306425 0.00800041 0.00997141 0.00690722 0.000927835 0.00639175 0.00814433 0.00237113 0.00187283 -0.0227313 -0.0276285 -0.00748737 0.00281384 0.0122735 0.00297303 -0.00265342 0.000129975 0.0154929 0.0131955 0.00252926 7.13616e-05 0.000651393 0.00892471 0.0115529 0.00795274 0.00894743 0.000700358 0.00549382 0.00536159 0.00824742 0.00360825 0.00381443 0.00494845 0.00783505 0.00546392 0.0056701 0.000309278 0.00908154 0.0019768 0.00742226 0.00764508 0.00349616 0.00816179 0.0013578 0.00373104 0.00745034 0.00535087 0.00440049 0.00432207 0.00523393 0.00312747 0.000849 0.0071454 0.000276385 0.00678878 0.00151833 0.00814433 0.00206186 0.00917526 0.00659794 0.00402062 0.00804124 0.00484536 0.00876289 0.00690722 0.00927835 0.00154639 0.00731959 0.00783505 0.00309278 0.00876289 0.00989691 0.00390157 0.000190752 0.00814433 0.000721649 0.0102062 0.00123711 0.000206186 0.00494845 0.0085567 0.00639175 0.00762887 0.00835052 0.00752577 0.00608247 0.00907216 0.00649485 0.00134021 0.00835052 0.00474227 0.00505155 0.0102062 0.00722369 0.00386057 0.00395863 0.00615109 0.00147024 0.000847496 0.00130389 0.00583869 0.00600883 0.00424511 0.00647411 0.00546549 0.00339355 0.00801352 0.00206281 0.00822321 0.00605754 0.00867299 0.00515464 0.00134021 0.00969072 0.00773196 0.00556701 0.00670103 0.00938144 0.000309278 0.00793955 0.000309762 0.00575912 0.00221574 0.00376382 0.00651465 0.00273824 0.00326014 0.000787378 0.00236836 0.00893814 0.0117051 0.00967283 0.0063567 0.00598608 0.0135587 0.0166049 0.00519325 0.00810103 0.00691628 0.00734516 0.00414976 0.00238284 0.00886598 0.00474227 0.00494845 0.00793814 0.00882072 0.00953852 0.00496233 0.00588996 0.00657847 0.00616167 0.00631212 0.00202621 -0.00911603 0.00132678 -0.000812002 0.00257063 0.00890214 -0.00126323 0.0125725 0.0310603 0.0269922 0.00593252 0.00828845 0.00918246 0.00726038 0.0152555 0.00755456 0.010362 0.000389533 0.00463918 0.0057732 0.00752577 0.0066027 0.00429091 0.00680229 -0.00018261 -0.00363275 -0.00469644 -0.0141997 -0.0104142 -0.0320751 -0.0346225 -0.0401791 -0.0341796 -0.029979 -0.0122628 0.00823746 0.0157899 -0.00089812 -0.0223716 -0.0104713 0.00573049 0.0132858 0.00996807 0.00690261 0.00592014 0.00346022 0.00851126 0.01 0.00412371 0.00172149 0.00336601 0.00186218 0.00323851 -0.0118058 -0.0154192 -0.0261432 -0.0299266 -0.0419539 -0.0359467 -0.0320081 -0.0233112 0.013001 0.0196968 0.0272083 0.0501994 0.0367789 0.0292002 0.0234958 0.00950604 0.015383 0.0128918 0.00444586 0.00240209 0.0101587 0.00338417 0.00113402 0.00453536 0.00458183 0.00922204 0.00650306 -0.00236705 -0.00809467 -0.0147442 -0.0180601 -0.0247954 -0.0197568 -0.0194628 0.00587385 0.00661545 -0.00767277 0.0186675 -0.0189343 -0.0125218 0.0166581 0.030018 0.019813 -0.0106618 0.012992 0.00552717 0.00232295 0.00517516 0.00296444 0.00992934 0.00938144 0.00378404 0.00237042 -0.00165306 -0.000379306 -0.00815266 -0.0100816 -0.0110449 -0.0210194 -0.0101252 0.000908451 0.0215667 -0.00430504 -0.0181693 -0.00175481 0.0113184 0.00155266 0.0264743 0.0234109 0.0135237 0.0220617 0.00225642 0.00650686 0.0113975 0.00950745 0.00688052 0.00848175 0.00967695 0.0010527 0.00162088 0.00486436 0.00562396 -0.00413151 -0.00458113 -0.00843046 -0.00787141 -0.0138158 0.000756954 -0.00106737 0.0303826 0.0425356 -0.00515291 -0.027171 -0.0361299 0.000285017 0.0114875 -0.00564522 0.015385 0.0115526 -0.00813591 0.00760928 0.00663274 0.0150901 0.00674053 0.00993578 0.00865474 0.00237113 0.00828378 0.000897733 0.00369407 -0.00121255 -0.00844322 -0.00641169 -0.0142017 -0.0277324 -0.0175052 0.00731775 0.0188152 0.0339993 0.0201269 -0.059075 -0.0779148 -0.03645 -0.022954 -0.0114567 0.00544271 -0.0271994 -0.0210626 -0.00115698 0.00201014 0.0132374 0.0136707 0.00323505 0.00281008 0.00670103 0.0011225 0.000971507 0.00462522 0.00587742 -0.00817039 -0.0110306 -0.0103084 -0.0260457 -0.0153696 -0.0206033 -0.0111814 0.0294828 -0.00838282 -0.0749023 -0.0696169 -0.0595663 -0.0737844 -0.049847 -0.0358951 -0.0334811 -0.0204495 -0.0197847 -0.00675793 -0.000148414 0.0139534 0.0105367 0.00147661 0.00175258 0.0039044 0.00680934 0.00766661 0.0098397 0.00386998 -0.00791246 6.53987e-05 -0.0263677 -0.0211706 -0.0274649 -0.032837 0.0216539 0.0103825 -0.0453667 -0.0105922 -0.0466368 -0.069267 -0.0666065 -0.0568697 -0.0534623 -0.0213642 -0.0189414 -0.0111122 -0.00457402 0.00560107 0.00618761 0.00595398 0.00164948 0.0090241 0.00205369 0.0063383 0.00468758 0.00415058 0.0065093 -0.00371469 -0.00061028 0.00107084 -0.028157 -0.0304743 0.00141717 0.0025099 -0.00175286 0.0324753 -0.000748262 -0.0521453 -0.0698996 -0.04831 -0.0413778 -0.0193277 -0.0180114 -0.00114507 -0.00500576 0.00176099 0.0022341 0.0065516 0.00164948 0.00513786 0.00453558 0.000998976 0.00131463 -0.00120418 -0.00565063 -0.00801383 -0.0124114 -0.00362026 -0.0387987 -0.0204654 0.0155889 -0.00329017 0.0168466 0.034155 -0.00610513 -0.0280129 -0.0582727 -0.0464311 -0.027852 -0.0236967 -0.0174022 -0.0145372 -0.00723323 0.00406778 0.00122599 0.0055872 0.000618557 0.00252752 0.0078124 0.00305262 -0.000923166 -0.000873134 -0.00219767 -0.0188432 -0.0190826 -0.00926831 -0.003906 -0.00235191 -0.00809103 0.0142356 0.0373014 